{"learner":{"attributes":{"scikit_learn":"{\"_estimator_type\": \"regressor\"}"},"feature_names":[],"feature_types":[],"gradient_booster":{"model":{"cats":{"enc":[],"feature_segments":[],"sorted_idx":[]},"gbtree_model_param":{"num_parallel_tree":"1","num_trees":"413"},"iteration_indptr":[0,1,2,3,4,5,6,7,8,9,10,11,12,13,14,15,16,17,18,19,20,21,22,23,24,25,26,27,28,29,30,31,32,33,34,35,36,37,38,39,40,41,42,43,44,45,46,47,48,49,50,51,52,53,54,55,56,57,58,59,60,61,62,63,64,65,66,67,68,69,70,71,72,73,74,75,76,77,78,79,80,81,82,83,84,85,86,87,88,89,90,91,92,93,94,95,96,97,98,99,100,101,102,103,104,105,106,107,108,109,110,111,112,113,114,115,116,117,118,119,120,121,122,123,124,125,126,127,128,129,130,131,132,133,134,135,136,137,138,139,140,141,142,143,144,145,146,147,148,149,150,151,152,153,154,155,156,157,158,159,160,161,162,163,164,165,166,167,168,169,170,171,172,173,174,175,176,177,178,179,180,181,182,183,184,185,186,187,188,189,190,191,192,193,194,195,196,197,198,199,200,201,202,203,204,205,206,207,208,209,210,211,212,213,214,215,216,217,218,219,220,221,222,223,224,225,226,227,228,229,230,231,232,233,234,235,236,237,238,239,240,241,242,243,244,245,246,247,248,249,250,251,252,253,254,255,256,257,258,259,260,261,262,263,264,265,266,267,268,269,270,271,272,273,274,275,276,277,278,279,280,281,282,283,284,285,286,287,288,289,290,291,292,293,294,295,296,297,298,299,300,301,302,303,304,305,306,307,308,309,310,311,312,313,314,315,316,317,318,319,320,321,322,323,324,325,326,327,328,329,330,331,332,333,334,335,336,337,338,339,340,341,342,343,344,345,346,347,348,349,350,351,352,353,354,355,356,357,358,359,360,361,362,363,364,365,366,367,368,369,370,371,372,373,374,375,376,377,378,379,380,381,382,383,384,385,386,387,388,389,390,391,392,393,394,395,396,397,398,399,400,401,402,403,404,405,406,407,408,409,410,411,412,413],"tree_info":[0,0,0,0,0,0,0,0,0,0,0,0,0,0,0,0,0,0,0,0,0,0,0,0,0,0,0,0,0,0,0,0,0,0,0,0,0,0,0,0,0,0,0,0,0,0,0,0,0,0,0,0,0,0,0,0,0,0,0,0,0,0,0,0,0,0,0,0,0,0,0,0,0,0,0,0,0,0,0,0,0,0,0,0,0,0,0,0,0,0,0,0,0,0,0,0,0,0,0,0,0,0,0,0,0,0,0,0,0,0,0,0,0,0,0,0,0,0,0,0,0,0,0,0,0,0,0,0,0,0,0,0,0,0,0,0,0,0,0,0,0,0,0,0,0,0,0,0,0,0,0,0,0,0,0,0,0,0,0,0,0,0,0,0,0,0,0,0,0,0,0,0,0,0,0,0,0,0,0,0,0,0,0,0,0,0,0,0,0,0,0,0,0,0,0,0,0,0,0,0,0,0,0,0,0,0,0,0,0,0,0,0,0,0,0,0,0,0,0,0,0,0,0,0,0,0,0,0,0,0,0,0,0,0,0,0,0,0,0,0,0,0,0,0,0,0,0,0,0,0,0,0,0,0,0,0,0,0,0,0,0,0,0,0,0,0,0,0,0,0,0,0,0,0,0,0,0,0,0,0,0,0,0,0,0,0,0,0,0,0,0,0,0,0,0,0,0,0,0,0,0,0,0,0,0,0,0,0,0,0,0,0,0,0,0,0,0,0,0,0,0,0,0,0,0,0,0,0,0,0,0,0,0,0,0,0,0,0,0,0,0,0,0,0,0,0,0,0,0,0,0,0,0,0,0,0,0,0,0,0,0,0,0,0,0,0,0,0,0,0,0,0,0,0,0,0,0,0,0,0,0,0,0,0,0,0,0,0,0,0,0,0,0,0,0,0,0,0,0,0,0,0,0,0,0,0,0,0,0,0,0,0,0],"trees":[{"base_weights":[-8.414872E-2,-3.1247003E0,1.3021017E1,-7.2564406E0,1.6851599E0,1.4091434E1,-1.2114103E-1,-1.3926387E1,-3.998036E0,9.200966E0,-1.6920444E0,1.5415089E1,9.7835076E-1,-9.043351E0,-5.30089E-1,-7.2488103E0,7.6911914E-1,1.2196746E1,1.7719011E0,-7.2350945E0,1.4424026E0,6.056025E0,1.7504787E1,-1.4824699E-1,1.8785104E-1,7.543388E-2,-1.0781674E1,-8.659828E0,1.9401383E-1,3.5581284E0,-6.534528E0,3.970571E-2,1.3494878E1,-8.904333E-2,5.0813465E0,-9.112859E0,7.045614E-2,8.948945E0,-2.4488552E0,-7.0654735E-2,1.1039797E1,5.4998033E-2,4.767417E-1,-1.3797899E1,-2.7928135E0,-1.3811736E1,-4.072326E0,-8.954012E-1,7.7507834E0,-2.5903547E-1,7.6126635E-2,7.290715E-2,1.4834085E1,1.8654896E-1,1.0282508E-2,-1.1948672E1,6.0103923E-1,1.2432379E1,3.3230617E0,-6.190079E0,7.010815E0,2.797002E-2,3.801597E-1,-3.9161095E-1,-1.0154425E-1,1.06974944E-1,-1.6858955E-1,-9.8946884E-2,-1.4571976E1,-1.27148075E1,1.9733357E-1,5.372736E0,-6.962372E0,-2.6049888E-2,2.6058966E-1,1.5986073E1,9.551403E-2,-1.3311821E1,-3.3403985E-2,1.4996006E-1,-1.385273E-1,4.0789878E-1,1.3209356E-1,-2.701807E-2,5.4639554E0,5.4991207E0,-1.0103958E1,9.493015E0,-2.3060592E-2,-3.9891267E-1,-1.09498195E-1,-3.7452772E-1,-9.46588E-2,-2.10096E-1,8.83309E-2,2.7901426E-1,-1.2509128E-1,-2.458485E-1,3.1830056E-4,4.626009E-1,1.6271864E-1,-9.8710574E-2,-3.7871125E-1,-0E0,2.1191636E-1,-2.7427587E-3,2.2425012E-1,-5.9134394E-2,-2.9858088E-1,3.287927E-1,4.1996274E-2],"categories":[],"categories_nodes":[],"categories_segments":[],"categories_sizes":[],"default_left":[0,0,0,0,0,0,0,0,0,0,0,0,0,0,0,0,0,0,0,0,0,0,0,0,0,0,0,0,0,0,0,0,0,0,0,0,0,0,0,0,0,0,0,0,0,0,0,0,0,0,0,0,0,0,0,0,0,0,0,0,0,0,0,0,0,0,0,0,0,0,0,0,0,0,0,0,0,0,0,0,0,0,0,0,0,0,0,0,0,0,0,0,0,0,0,0,0,0,0,0,0,0,0,0,0,0,0,0,0,0,0],"id":0,"left_children":[1,3,5,7,9,11,-1,13,15,17,19,21,23,25,-1,27,29,31,33,35,37,39,41,-1,-1,-1,43,45,-1,47,49,-1,51,-1,53,55,-1,57,59,-1,61,-1,-1,63,65,67,69,71,73,-1,-1,-1,75,-1,-1,77,79,81,83,85,87,-1,-1,-1,-1,-1,-1,-1,89,91,93,95,97,-1,-1,99,-1,101,-1,-1,-1,-1,-1,-1,103,105,107,109,-1,-1,-1,-1,-1,-1,-1,-1,-1,-1,-1,-1,-1,-1,-1,-1,-1,-1,-1,-1,-1,-1,-1],"loss_changes":[2.3264318E4,9.482679E3,2.4164238E3,5.2761426E3,5.740526E3,1.7368613E3,0E0,1.6983809E3,2.8046814E3,1.4411978E3,2.7993958E3,1.3180918E3,8.3820386E2,1.3237759E3,0E0,2.548755E3,1.6805288E3,5.655488E2,5.355363E2,1.2106287E3,3.177841E3,1.2471234E3,8.764199E2,0E0,0E0,0E0,1.0026826E3,2.0729482E3,0E0,1.1391918E3,9.0890894E2,0E0,3.9607373E2,0E0,1.6063474E2,1.4183608E3,0E0,5.0999536E2,2.7957188E3,0E0,5.3051733E2,0E0,0E0,1.6054443E2,6.506367E2,5.3893555E1,2.2321523E3,1.4388551E3,6.8770386E2,0E0,0E0,0E0,1.6977148E2,0E0,0E0,4.716338E2,6.483606E2,1.0182007E2,2.2686087E2,2.7913994E3,4.9731458E2,0E0,0E0,0E0,0E0,0E0,0E0,0E0,2.0231445E1,4.6905273E1,1.3394606E3,1.3111144E3,3.4330328E2,0E0,0E0,1.9600098E1,0E0,1.4372559E2,0E0,0E0,0E0,0E0,0E0,0E0,2.2235773E2,3.1159808E2,3.467583E2,3.4467847E2,0E0,0E0,0E0,0E0,0E0,0E0,0E0,0E0,0E0,0E0,0E0,0E0,0E0,0E0,0E0,0E0,0E0,0E0,0E0,0E0,0E0,0E0,0E0],"parents":[2147483647,0,0,1,1,2,2,3,3,4,4,5,5,7,7,8,8,9,9,10,10,11,11,12,12,13,13,15,15,16,16,17,17,18,18,19,19,20,20,21,21,22,22,26,26,27,27,29,29,30,30,32,32,34,34,35,35,37,37,38,38,40,40,43,43,44,44,45,45,46,46,47,47,48,48,52,52,55,55,56,56,57,57,58,58,59,59,60,60,68,68,69,69,70,70,71,71,72,72,75,75,77,77,84,84,85,85,86,86,87,87],"right_children":[2,4,6,8,10,12,-1,14,16,18,20,22,24,26,-1,28,30,32,34,36,38,40,42,-1,-1,-1,44,46,-1,48,50,-1,52,-1,54,56,-1,58,60,-1,62,-1,-1,64,66,68,70,72,74,-1,-1,-1,76,-1,-1,78,80,82,84,86,88,-1,-1,-1,-1,-1,-1,-1,90,92,94,96,98,-1,-1,100,-1,102,-1,-1,-1,-1,-1,-1,104,106,108,110,-1,-1,-1,-1,-1,-1,-1,-1,-1,-1,-1,-1,-1,-1,-1,-1,-1,-1,-1,-1,-1,-1,-1],"split_conditions":[7.4282074E-1,8.7677693E-1,1.681096E0,-4.4210178E-1,-5.1739395E-1,8.1978106E-1,-1.2114103E-1,9.4913125E-2,3.2727647E-1,-3.8030185E-2,-9.153012E-1,-2.3355663E-1,-1.3411172E-2,-1.1433723E0,-5.30089E-1,2.0414312E0,8.116347E-2,-2.8873244E-1,2.0072302E-1,2.594511E0,-2.1631469E-1,2.2050312E-1,-9.320048E-1,-1.4824699E-1,1.8785104E-1,7.543388E-2,-1.8556245E-1,-3.6439818E-1,1.9401383E-1,-3.7657666E-1,7.8593236E-1,3.970571E-2,1.01195164E-1,-8.904333E-2,-5.943107E-1,8.1978106E-1,7.045614E-2,2.4521563E-2,1.3923413E-1,-7.0654735E-2,2.5727326E-1,5.4998033E-2,4.767417E-1,-1.5922777E-1,5.0414246E-1,-1.1568286E0,-6.4699316E-1,-2.0159051E-1,-9.4954216E-1,-2.5903547E-1,7.6126635E-2,7.290715E-2,3.94317E-2,1.8654896E-1,1.0282508E-2,6.293725E-1,2.5079165E-2,-1.8817244E-1,-2.4546006E-1,-3.8769674E-1,5.443468E-1,2.797002E-2,3.801597E-1,-3.9161095E-1,-1.0154425E-1,1.06974944E-1,-1.6858955E-1,-9.8946884E-2,9.464063E-1,1.3209252E0,-1.9528836E-2,-4.364765E-1,-1.8817244E-1,-2.6049888E-2,2.6058966E-1,4.6825778E-1,9.551403E-2,-1.1605957E0,-3.3403985E-2,1.4996006E-1,-1.385273E-1,4.0789878E-1,1.3209356E-1,-2.701807E-2,-1.3765302E-1,-3.8923123E-1,-1.882989E0,-4.2189595E-1,-2.3060592E-2,-3.9891267E-1,-1.09498195E-1,-3.7452772E-1,-9.46588E-2,-2.10096E-1,8.83309E-2,2.7901426E-1,-1.2509128E-1,-2.458485E-1,3.1830056E-4,4.626009E-1,1.6271864E-1,-9.8710574E-2,-3.7871125E-1,-0E0,2.1191636E-1,-2.7427587E-3,2.2425012E-1,-5.9134394E-2,-2.9858088E-1,3.287927E-1,4.1996274E-2],"split_indices":[0,7,34,12,41,38,0,18,4,1,8,16,18,8,0,8,45,10,1,12,18,8,38,0,0,0,0,34,0,21,16,0,39,0,37,38,0,15,42,0,17,0,0,19,39,5,7,3,15,0,0,0,15,0,0,15,15,12,4,21,3,0,0,0,0,0,0,0,42,16,15,38,12,0,0,4,0,8,0,0,0,0,0,0,3,21,42,16,0,0,0,0,0,0,0,0,0,0,0,0,0,0,0,0,0,0,0,0,0,0,0],"split_type":[0,0,0,0,0,0,0,0,0,0,0,0,0,0,0,0,0,0,0,0,0,0,0,0,0,0,0,0,0,0,0,0,0,0,0,0,0,0,0,0,0,0,0,0,0,0,0,0,0,0,0,0,0,0,0,0,0,0,0,0,0,0,0,0,0,0,0,0,0,0,0,0,0,0,0,0,0,0,0,0,0,0,0,0,0,0,0,0,0,0,0,0,0,0,0,0,0,0,0,0,0,0,0,0,0,0,0,0,0,0,0],"sum_hessian":[5.74E2,4.69E2,1.05E2,2.51E2,2.18E2,1E2,5E0,7.7E1,1.74E2,6.5E1,1.53E2,9E1,1E1,5.1E1,2.6E1,1.02E2,7.2E1,4.4E1,2.1E1,5.3E1,1E2,2E1,7E1,5E0,5E0,6E0,4.5E1,9.5E1,7E0,5.4E1,1.8E1,6E0,3.8E1,8E0,1.3E1,4.5E1,8E0,3.2E1,6.8E1,8E0,1.2E1,5E0,6.5E1,3E1,1.5E1,4E1,5.5E1,2.8E1,2.6E1,1.3E1,5E0,6E0,3.2E1,7E0,6E0,3.4E1,1.1E1,1.6E1,1.6E1,5E1,1.8E1,5E0,7E0,2.4E1,6E0,5E0,1E1,5E0,3.5E1,1.5E1,4E1,1.4E1,1.4E1,6E0,2E1,2.7E1,5E0,2.9E1,5E0,6E0,5E0,7E0,9E0,6E0,1E1,1.2E1,3.8E1,1.3E1,5E0,3E1,5E0,1E1,5E0,9E0,3.1E1,9E0,5E0,9E0,5E0,1.9E1,8E0,6E0,2.3E1,5E0,5E0,6E0,6E0,8E0,3E1,7E0,6E0],"tree_param":{"num_deleted":"0","num_feature":"51","num_nodes":"111","size_leaf_vector":"1"}},{"base_weights":[3.5224173E-2,-3.4405417E0,1.2516262E1,-8.142562E0,1.6838455E0,3.0754137E0,1.6351818E1,-1.3586556E1,-3.8311117E0,4.7418957E0,-7.9795313E0,3.3933222E-1,-2.5801303E-2,1.7358332E1,-2.6832503E-4,-1.5192546E1,7.978402E-2,-6.732805E0,3.2811387E0,2.008638E0,1.1987095E1,-1.1049396E1,1.9117543E0,2.1991614E-1,-3.0601892E0,1.8345434E1,6.745812E-2,-1.6434984E1,3.837818E-2,-9.31475E0,-9.0882075E-1,-4.386547E0,6.619805E0,4.584487E0,-3.7983842E0,8.693887E-1,1.5444924E1,8.44846E-2,-1.34413595E1,-1.17878586E-1,1.6957365E-1,-4.8288317E0,7.788859E-2,8.0025835E0,5.0809604E-1,-1.86696E1,-7.598771E0,-1.0745183E1,4.6213534E-2,-2.5053898E-1,2.4314735E0,-1.817765E-1,-0E0,-8.9781865E-2,9.639829E0,1.1396414E1,1.9935621E0,5.238546E0,-7.867817E0,1.2581126E-1,-1.0083E-1,1.7925802E1,1.2466917E-2,-2.4133792E-2,-3.9378348E-1,-9.034069E-3,-1.6438812E-1,2.4421287E-1,5.7499252E-2,-5.060376E-1,-9.7088866E-2,2.5426593E-2,-9.909268E0,-2.5463507E0,-1.2286398E1,-2.5972102E0,5.6276E0,3.1902218E-1,3.387197E-2,3.549169E-1,3.1515695E-2,-1.2902485E0,8.085287E0,2.494447E-1,-2.7945215E-2,-1.0176106E1,-3.620938E-2,5.045202E-1,1.3215433E-1,-3.468673E-1,-1.5039051E-2,2.7058408E-2,-1.3690381E-1,-8.196939E-2,-3.4014624E-1,4.5114566E-2,-1.475972E-1,3.356678E-2,2.2083466E-1,9.161509E-2,-1.4453194E-1,3.337141E-2,2.5273314E-1,-7.61087E-2,-2.950199E-1],"categories":[],"categories_nodes":[],"categories_segments":[],"categories_sizes":[],"default_left":[0,0,0,0,0,0,0,0,0,0,0,0,0,0,0,0,0,0,0,0,0,0,0,0,0,0,0,0,0,0,0,0,0,0,0,0,0,0,0,0,0,0,0,0,0,0,0,0,0,0,0,0,0,0,0,0,0,0,0,0,0,0,0,0,0,0,0,0,0,0,0,0,0,0,0,0,0,0,0,0,0,0,0,0,0,0,0,0,0,0,0,0,0,0,0,0,0,0,0,0,0,0,0,0,0],"id":1,"left_children":[1,3,5,7,9,11,13,15,17,19,21,-1,23,25,-1,27,-1,29,31,33,35,37,39,-1,41,43,-1,45,-1,47,49,51,53,55,57,59,61,-1,63,-1,-1,65,-1,67,-1,69,71,73,-1,-1,75,-1,-1,-1,77,79,81,83,85,-1,-1,87,-1,-1,-1,-1,-1,-1,-1,-1,-1,-1,89,91,93,95,97,-1,-1,-1,-1,99,101,-1,-1,103,-1,-1,-1,-1,-1,-1,-1,-1,-1,-1,-1,-1,-1,-1,-1,-1,-1,-1,-1],"loss_changes":[2.468319E4,1.0792744E4,4.2274863E3,5.199411E3,6.596113E3,1.3174847E3,1.4434844E3,2.9424375E3,2.9376084E3,3.1981108E3,1.7481599E3,0E0,1.0821493E3,9.432578E2,0E0,2.0557988E3,0E0,1.43969E3,1.2443888E3,2.0004177E3,1.651375E3,1.660123E3,6.590928E2,0E0,4.0550552E2,2.357793E2,0E0,9.9896875E2,0E0,1.1796318E3,1.1757639E3,1.8508627E2,1.143181E3,1.4844927E3,1.7480159E3,3.9863177E2,1.2059521E3,0E0,7.4858105E2,0E0,0E0,1.6281982E2,0E0,3.0406738E1,0E0,5.1543164E2,5.6821484E2,6.062407E2,0E0,0E0,5.5544977E2,0E0,0E0,0E0,4.9569653E2,4.770056E2,1.4949902E3,5.0152148E2,3.842932E2,0E0,0E0,8.226758E1,0E0,0E0,0E0,0E0,0E0,0E0,0E0,0E0,0E0,0E0,6.386277E2,1.8762859E2,1.8121729E2,2.5379767E2,1.9085413E2,0E0,0E0,0E0,0E0,1.158803E3,2.291283E2,0E0,0E0,2.1384277E1,0E0,0E0,0E0,0E0,0E0,0E0,0E0,0E0,0E0,0E0,0E0,0E0,0E0,0E0,0E0,0E0,0E0,0E0,0E0],"parents":[2147483647,0,0,1,1,2,2,3,3,4,4,5,5,6,6,7,7,8,8,9,9,10,10,12,12,13,13,15,15,17,17,18,18,19,19,20,20,21,21,22,22,24,24,25,25,27,27,29,29,30,30,31,31,32,32,33,33,34,34,35,35,36,36,38,38,41,41,43,43,45,45,46,46,47,47,50,50,54,54,55,55,56,56,57,57,58,58,61,61,72,72,73,73,74,74,75,75,76,76,81,81,82,82,85,85],"right_children":[2,4,6,8,10,12,14,16,18,20,22,-1,24,26,-1,28,-1,30,32,34,36,38,40,-1,42,44,-1,46,-1,48,50,52,54,56,58,60,62,-1,64,-1,-1,66,-1,68,-1,70,72,74,-1,-1,76,-1,-1,-1,78,80,82,84,86,-1,-1,88,-1,-1,-1,-1,-1,-1,-1,-1,-1,-1,90,92,94,96,98,-1,-1,-1,-1,100,102,-1,-1,104,-1,-1,-1,-1,-1,-1,-1,-1,-1,-1,-1,-1,-1,-1,-1,-1,-1,-1,-1],"split_conditions":[5.880902E-1,8.7677693E-1,-2.4788935E-1,-3.830735E-1,-5.034294E-2,-8.361143E-1,1.0296521E0,2.4847758E0,5.113837E-1,7.4171174E-1,2.1261075E0,3.3933222E-1,8.1346415E-2,5.63805E-1,-2.6832503E-4,3.4008312E0,7.978402E-2,1.5709546E-1,9.212498E-3,8.5718113E-1,-2.1419212E-1,1.6656244E-1,5.4278725E-1,2.1991614E-1,-4.115019E-2,7.179369E-1,6.745812E-2,-1.1098255E-1,3.837818E-2,1.4082711E0,-8.062128E-1,-4.5874494E-1,-4.564275E-1,-1.250572E-1,1.08218305E-2,-1.9880608E-1,-3.7059826E-1,8.44846E-2,-1.029205E0,-1.17878586E-1,1.6957365E-1,-4.2658237E-1,7.788859E-2,7.756349E-2,5.0809604E-1,3.8166896E-2,-3.843877E-1,-7.023922E-1,4.6213534E-2,-2.5053898E-1,-7.5987205E-2,-1.817765E-1,-0E0,-8.9781865E-2,4.4711205E-1,-3.809436E-1,1.065434E0,-1.7453613E0,2.829783E-2,1.2581126E-1,-1.0083E-1,1.220216E0,1.2466917E-2,-2.4133792E-2,-3.9378348E-1,-9.034069E-3,-1.6438812E-1,2.4421287E-1,5.7499252E-2,-5.060376E-1,-9.7088866E-2,2.5426593E-2,-6.2552315E-1,9.142039E-1,-7.8356206E-1,1.0217047E-1,-3.4029296E-1,3.1902218E-1,3.387197E-2,3.549169E-1,3.1515695E-2,-2.3775047E-1,-3.3045584E-1,2.494447E-1,-2.7945215E-2,-5.2998525E-1,-3.620938E-2,5.045202E-1,1.3215433E-1,-3.468673E-1,-1.5039051E-2,2.7058408E-2,-1.3690381E-1,-8.196939E-2,-3.4014624E-1,4.5114566E-2,-1.475972E-1,3.356678E-2,2.2083466E-1,9.161509E-2,-1.4453194E-1,3.337141E-2,2.5273314E-1,-7.61087E-2,-2.950199E-1],"split_indices":[0,7,49,12,21,25,25,49,25,10,36,0,1,40,0,36,0,8,15,40,25,42,42,0,12,2,0,1,0,16,42,16,23,9,15,18,37,0,9,0,0,12,0,9,0,15,26,23,0,0,25,0,0,0,9,21,13,42,15,0,0,42,0,0,0,0,0,0,0,0,0,0,8,24,16,17,0,0,0,0,0,18,16,0,0,33,0,0,0,0,0,0,0,0,0,0,0,0,0,0,0,0,0,0,0],"split_type":[0,0,0,0,0,0,0,0,0,0,0,0,0,0,0,0,0,0,0,0,0,0,0,0,0,0,0,0,0,0,0,0,0,0,0,0,0,0,0,0,0,0,0,0,0,0,0,0,0,0,0,0,0,0,0,0,0,0,0,0,0,0,0,0,0,0,0,0,0,0,0,0,0,0,0,0,0,0,0,0,0,0,0,0,0,0,0,0,0,0,0,0,0,0,0,0,0,0,0,0,0,0,0,0,0],"sum_hessian":[5.59E2,4.4E2,1.19E2,2.28E2,2.12E2,3.7E1,8.2E1,9.6E1,1.32E2,1.63E2,4.9E1,5E0,3.2E1,7.7E1,5E0,8.8E1,8E0,9.4E1,3.8E1,1.23E2,4E1,3.7E1,1.2E1,6E0,2.6E1,7.1E1,6E0,8.2E1,6E0,6.3E1,3.1E1,1.1E1,2.7E1,8.6E1,3.7E1,1.1E1,2.9E1,5E0,3.2E1,5E0,7E0,2.1E1,5E0,1.2E1,5.9E1,6.1E1,2.1E1,5.6E1,7E0,6E0,2.5E1,5E0,6E0,6E0,2.1E1,1.9E1,6.7E1,1.1E1,2.6E1,6E0,5E0,2.4E1,5E0,5E0,2.7E1,7E0,1.4E1,7E0,5E0,5.6E1,5E0,5E0,1.6E1,1.1E1,4.5E1,1E1,1.5E1,1.4E1,7E0,1.4E1,5E0,4.6E1,2.1E1,5E0,6E0,1.7E1,9E0,1.9E1,5E0,1E1,6E0,6E0,5E0,6E0,3.9E1,5E0,5E0,9E0,6E0,2.2E1,2.4E1,6E0,1.5E1,5E0,1.2E1],"tree_param":{"num_deleted":"0","num_feature":"51","num_nodes":"105","size_leaf_vector":"1"}},{"base_weights":[5.6178555E-2,-3.2201774E0,1.1631989E1,-7.3151298E0,1.1454827E0,1.31501465E1,-3.0712528E0,-1.18264475E1,-2.9064958E0,3.9651773E0,-7.821603E0,1.4818693E1,3.5834987E0,7.342774E-2,-1.8382175E-1,-1.340927E1,-3.87819E0,-4.5439944E0,2.7418283E-1,-7.175923E-1,8.135799E0,-4.002933E-1,-3.4876257E-1,9.257809E-3,1.5905443E1,-2.5389664E0,2.5339013E-1,-1.4681518E1,-2.4588933E-2,-7.1212835E0,9.634377E-2,-8.3820095E0,8.96927E-1,3.8264406E0,-5.7224016E0,2.4243248E0,1.1424814E1,-2.110811E-1,5.0980444E0,1.681762E1,5.660587E0,4.275284E-2,-1.3590656E-1,-4.0940922E-1,-6.0224075E0,-4.747676E-2,-2.2484948E-1,8.063102E-2,-9.755059E0,4.706411E0,-8.308469E0,-2.1796694E0,8.930249E0,1.20141625E-1,-9.167333E0,6.535876E0,-2.0036747E0,1.233151E1,2.4450418E-2,-6.810719E-2,8.598341E0,8.933066E-2,1.7464106E1,-6.552418E-2,2.8699228E-1,-1.4180898E-2,-2.6080987E-1,-1.0956035E1,-2.5229156E-2,6.816062E0,-5.8152117E-2,-7.024867E-2,-2.6076195E-1,-5.1071873E0,1.2943077E-1,3.2221023E-2,2.793414E-1,-3.1546667E-1,-3.060906E0,2.4348953E-1,-4.0499132E-2,-1.5883613E-1,1.219823E0,4.0926602E-1,7.404098E0,5.551601E-2,2.768509E-1,4.7129136E-1,1.483475E-1,-2.9834846E-1,-6.611835E-2,-9.983076E-3,2.6397878E-1,-1.9423407E-1,3.1802025E-2,6.363374E-2,-1.784952E-1,-4.4909053E-2,9.517805E-2,2.8144792E-1,3.387539E-2],"categories":[],"categories_nodes":[],"categories_segments":[],"categories_sizes":[],"default_left":[0,0,0,0,0,0,0,0,0,0,0,0,0,0,0,0,0,0,0,0,0,0,0,0,0,0,0,0,0,0,0,0,0,0,0,0,0,0,0,0,0,0,0,0,0,0,0,0,0,0,0,0,0,0,0,0,0,0,0,0,0,0,0,0,0,0,0,0,0,0,0,0,0,0,0,0,0,0,0,0,0,0,0,0,0,0,0,0,0,0,0,0,0,0,0,0,0,0,0,0,0],"id":2,"left_children":[1,3,5,7,9,11,13,15,17,19,21,23,25,-1,-1,27,29,31,-1,33,35,37,-1,-1,39,41,-1,43,-1,45,-1,47,49,51,53,55,57,-1,59,61,63,-1,-1,-1,65,-1,-1,-1,67,69,71,73,75,-1,77,79,81,83,-1,-1,85,-1,87,-1,-1,-1,-1,89,-1,91,-1,-1,-1,93,-1,-1,-1,-1,95,-1,-1,-1,97,-1,99,-1,-1,-1,-1,-1,-1,-1,-1,-1,-1,-1,-1,-1,-1,-1,-1],"loss_changes":[2.1996098E4,8.1247573E3,3.0619395E3,4.473796E3,5.788058E3,1.592752E3,4.8347614E2,1.1656562E3,2.9996672E3,3.411089E3,2.277461E3,1.501002E3,1.039463E3,0E0,0E0,1.3944297E3,7.733407E2,2.4421328E3,0E0,2.0640366E3,1.5816836E3,1.4438145E3,0E0,0E0,3.6521875E2,2.2704002E2,0E0,3.5660156E2,0E0,8.079059E1,0E0,1.227606E3,2.012783E3,1.570157E3,1.7477977E3,7.948101E2,4.751626E2,0E0,6.556172E2,3.8779688E2,8.111909E2,0E0,0E0,0E0,3.6566443E2,0E0,0E0,0E0,5.9286035E2,6.6487225E2,2.5139648E1,6.724574E2,3.145935E2,0E0,4.3551318E2,5.9077106E2,3.4644238E2,3.0237793E2,0E0,0E0,8.19718E1,0E0,1.5305273E2,0E0,0E0,0E0,0E0,1.1111328E2,0E0,8.0717114E2,0E0,0E0,0E0,3.691953E2,0E0,0E0,0E0,0E0,4.678977E2,0E0,0E0,0E0,1.5624832E2,0E0,5.790243E2,0E0,0E0,0E0,0E0,0E0,0E0,0E0,0E0,0E0,0E0,0E0,0E0,0E0,0E0,0E0,0E0],"parents":[2147483647,0,0,1,1,2,2,3,3,4,4,5,5,6,6,7,7,8,8,9,9,10,10,11,11,12,12,15,15,16,16,17,17,19,19,20,20,21,21,24,24,25,25,27,27,29,29,31,31,32,32,33,33,34,34,35,35,36,36,38,38,39,39,40,40,44,44,48,48,49,49,50,50,51,51,52,52,54,54,55,55,56,56,57,57,60,60,62,62,67,67,69,69,73,73,78,78,82,82,84,84],"right_children":[2,4,6,8,10,12,14,16,18,20,22,24,26,-1,-1,28,30,32,-1,34,36,38,-1,-1,40,42,-1,44,-1,46,-1,48,50,52,54,56,58,-1,60,62,64,-1,-1,-1,66,-1,-1,-1,68,70,72,74,76,-1,78,80,82,84,-1,-1,86,-1,88,-1,-1,-1,-1,90,-1,92,-1,-1,-1,94,-1,-1,-1,-1,96,-1,-1,-1,98,-1,100,-1,-1,-1,-1,-1,-1,-1,-1,-1,-1,-1,-1,-1,-1,-1,-1],"split_conditions":[5.880902E-1,8.7677693E-1,8.288067E-1,-3.1544095E-1,-5.034294E-2,9.7059673E-1,5.567902E-1,-1.8556245E-1,1.4601264E0,-6.839149E-2,4.8910968E-2,-9.636729E-1,2.5442275E-1,7.342774E-2,-1.8382175E-1,2.346681E0,4.2304742E-1,2.5678584E-1,2.7418283E-1,-1.7557035E-1,3.1841743E-1,-7.427855E-2,-3.4876257E-1,9.257809E-3,6.7761916E-1,1.8677199E-1,2.5339013E-1,3.546503E-2,-2.4588933E-2,-7.4760616E-1,9.634377E-2,-1.6343936E0,3.0388612E-2,-2.0471384E-1,-3.8725233E-1,-1.3999645E-1,1.4502643E0,-2.110811E-1,-7.344029E-1,-7.1415514E-1,2.0042923E-1,4.275284E-2,-1.3590656E-1,-4.0940922E-1,-1.9843782E-1,-4.747676E-2,-2.2484948E-1,8.063102E-2,1.360214E0,1.696464E-1,5.3874844E-1,-2.2846924E-1,-5.009993E-1,1.20141625E-1,-1.4301977E-2,2.5160763E-2,-1.4439657E-1,9.678442E-2,2.4450418E-2,-6.810719E-2,7.942771E-1,8.933066E-2,1.0209062E0,-6.552418E-2,2.8699228E-1,-1.4180898E-2,-2.6080987E-1,2.8887212E0,-2.5229156E-2,1.176023E-2,-5.8152117E-2,-7.024867E-2,-2.6076195E-1,-9.1986257E-1,1.2943077E-1,3.2221023E-2,2.793414E-1,-3.1546667E-1,5.1231444E-1,2.4348953E-1,-4.0499132E-2,-1.5883613E-1,2.5428882E-1,4.0926602E-1,-2.0962536E-1,5.551601E-2,2.768509E-1,4.7129136E-1,1.483475E-1,-2.9834846E-1,-6.611835E-2,-9.983076E-3,2.6397878E-1,-1.9423407E-1,3.1802025E-2,6.363374E-2,-1.784952E-1,-4.4909053E-2,9.517805E-2,2.8144792E-1,3.387539E-2],"split_indices":[0,6,34,11,21,3,5,0,8,42,9,38,8,0,0,21,42,4,0,18,39,38,0,0,42,17,0,15,0,9,0,42,21,8,21,39,24,0,3,42,8,0,0,0,45,0,0,0,11,9,4,11,5,0,19,15,11,3,0,0,4,0,9,0,0,0,0,3,0,15,0,0,0,42,0,0,0,0,4,0,0,0,42,0,11,0,0,0,0,0,0,0,0,0,0,0,0,0,0,0,0],"split_type":[0,0,0,0,0,0,0,0,0,0,0,0,0,0,0,0,0,0,0,0,0,0,0,0,0,0,0,0,0,0,0,0,0,0,0,0,0,0,0,0,0,0,0,0,0,0,0,0,0,0,0,0,0,0,0,0,0,0,0,0,0,0,0,0,0,0,0,0,0,0,0,0,0,0,0,0,0,0,0,0,0,0,0,0,0,0,0,0,0,0,0,0,0,0,0,0,0,0,0,0,0],"sum_hessian":[5.7E2,4.47E2,1.23E2,2.29E2,2.18E2,1.12E2,1.1E1,1.09E2,1.2E2,1.68E2,5E1,9.3E1,1.9E1,5E0,6E0,8.8E1,2.1E1,1.1E2,1E1,8.1E1,8.7E1,2.4E1,2.6E1,7E0,8.6E1,1.1E1,8E0,7.9E1,9E0,1.5E1,6E0,6.3E1,4.7E1,4.3E1,3.8E1,3.5E1,5.2E1,9E0,1.5E1,7.6E1,1E1,5E0,6E0,6.6E1,1.3E1,6E0,9E0,6E0,5.7E1,3.5E1,1.2E1,2.1E1,2.2E1,9E0,2.9E1,1.7E1,1.8E1,4.7E1,5E0,5E0,1E1,5E0,7.1E1,5E0,5E0,8E0,5E0,4.9E1,8E0,2.7E1,8E0,6E0,6E0,1.6E1,5E0,6E0,1.6E1,1.6E1,1.3E1,1.2E1,5E0,6E0,1.2E1,2.1E1,2.6E1,5E0,5E0,6.4E1,7E0,4.4E1,5E0,1E1,1.7E1,1.1E1,5E0,6E0,7E0,6E0,6E0,1.4E1,1.2E1],"tree_param":{"num_deleted":"0","num_feature":"51","num_nodes":"101","size_leaf_vector":"1"}},{"base_weights":[4.7469395E-3,-3.2727232E0,1.22648325E1,-9.123859E0,-0E0,1.3597325E1,-1.5583889E-1,-1.4016587E1,-3.0758874E0,-3.3658972E0,3.1985533E0,1.5443087E1,1.2855755E0,-3.2163658E0,-1.5907267E1,3.2986977E0,-9.872445E0,1.5549165E-1,-7.857666E0,4.1804516E-1,1.7956539E0,2.9064983E-2,1.626554E1,-4.318748E0,2.505526E-1,-3.001271E-1,1.1551827E-1,-4.7503456E-1,-5.543547E0,-2.8086695E-1,9.543007E0,-1.1159174E1,-6.4787325E-3,-7.338377E0,2.6826842E0,2.2461729E-1,-1.0865272E1,3.1400151E0,-8.287088E0,4.580675E-1,6.2167234E0,-1.4032258E-1,-2.2934211E-2,-2.555398E-1,1.1762642E-1,4.217514E0,-4.975937E0,5.9937224E-2,2.986638E-1,-3.1558102E-1,-5.8926597E-2,-1.9227106E-2,-9.808961E0,-1.3467094E0,6.5877976E0,-2.1196963E-1,4.866601E0,-3.86481E-1,-2.4387586E0,5.4831724E0,-2.9436774E0,-5.512011E-2,-2.505404E-1,2.8956386E-1,-1.8394325E-2,-3.4731086E-2,2.0123513E-1,-1.8000422E-1,5.797634E-3,-7.637562E-2,-2.94729E-1,-4.0215034E0,1.2484801E-1,1.0042688E1,-1.0383013E0,8.544706E-3,1.7980285E-1,8.639923E-2,-2.0116284E-1,7.845359E0,-2.3334122E0,-9.492601E0,2.6281097E0,1.05426796E-1,-2.0475301E-1,3.12167E-1,1.8131318E-2,-1.6361661E-1,1.0811497E-1,4.9518845E-3,2.6585934E-1,1.6802241E-1,-2.0143136E-1,-3.1883848E-1,-1.132033E-2,1.3311596E-1,-2.303076E-2],"categories":[],"categories_nodes":[],"categories_segments":[],"categories_sizes":[],"default_left":[0,0,0,0,0,0,0,0,0,0,0,0,0,0,0,0,0,0,0,0,0,0,0,0,0,0,0,0,0,0,0,0,0,0,0,0,0,0,0,0,0,0,0,0,0,0,0,0,0,0,0,0,0,0,0,0,0,0,0,0,0,0,0,0,0,0,0,0,0,0,0,0,0,0,0,0,0,0,0,0,0,0,0,0,0,0,0,0,0,0,0,0,0,0,0,0,0],"id":3,"left_children":[1,3,5,7,9,11,-1,13,15,17,19,21,23,25,27,29,31,33,35,-1,37,-1,39,41,-1,-1,-1,-1,43,45,47,49,-1,51,53,55,57,59,61,-1,63,-1,-1,-1,-1,65,67,-1,-1,-1,-1,-1,69,71,73,-1,75,-1,77,79,81,-1,-1,-1,-1,-1,-1,-1,-1,-1,-1,83,-1,85,87,-1,-1,-1,-1,89,91,93,95,-1,-1,-1,-1,-1,-1,-1,-1,-1,-1,-1,-1,-1,-1],"loss_changes":[2.3989658E4,9.01968E3,3.4802617E3,4.7755146E3,3.357794E3,2.5944785E3,0E0,1.6126719E3,3.7154277E3,2.4141592E3,2.7567642E3,1.1111367E3,1.1973517E3,1.548021E3,1.4521738E3,1.0459427E3,4.8605835E2,1.7979187E3,1.6459707E3,0E0,2.1580059E3,0E0,8.5944727E2,3.3025604E1,0E0,0E0,0E0,0E0,1.1879177E3,8.211946E2,1.0522705E2,1.886499E2,0E0,3.4752966E2,1.1634563E3,1.0927537E3,1.49471E3,2.019303E3,5.4424805E1,0E0,7.349571E2,0E0,0E0,0E0,0E0,4.514946E2,2.0777216E2,0E0,0E0,0E0,0E0,0E0,9.62146E0,7.390324E2,1.0305436E3,0E0,1.5424402E2,0E0,8.094447E2,1.9393564E3,1.6216886E3,0E0,0E0,0E0,0E0,0E0,0E0,0E0,0E0,0E0,0E0,1.108248E3,0E0,4.433706E2,5.7285046E2,0E0,0E0,0E0,0E0,1.4397417E3,1.5509875E3,4.7884082E2,2.55601E2,0E0,0E0,0E0,0E0,0E0,0E0,0E0,0E0,0E0,0E0,0E0,0E0,0E0,0E0],"parents":[2147483647,0,0,1,1,2,2,3,3,4,4,5,5,7,7,8,8,9,9,10,10,11,11,12,12,13,13,14,14,15,15,16,16,17,17,18,18,20,20,22,22,23,23,28,28,29,29,30,30,31,31,33,33,34,34,35,35,36,36,37,37,38,38,40,40,45,45,46,46,52,52,53,53,54,54,56,56,58,58,59,59,60,60,71,71,73,73,74,74,79,79,80,80,81,81,82,82],"right_children":[2,4,6,8,10,12,-1,14,16,18,20,22,24,26,28,30,32,34,36,-1,38,-1,40,42,-1,-1,-1,-1,44,46,48,50,-1,52,54,56,58,60,62,-1,64,-1,-1,-1,-1,66,68,-1,-1,-1,-1,-1,70,72,74,-1,76,-1,78,80,82,-1,-1,-1,-1,-1,-1,-1,-1,-1,-1,84,-1,86,88,-1,-1,-1,-1,90,92,94,96,-1,-1,-1,-1,-1,-1,-1,-1,-1,-1,-1,-1,-1,-1],"split_conditions":[5.880902E-1,-4.2160687E-1,1.1422979E0,8.7677693E-1,8.7677693E-1,9.7059673E-1,-1.5583889E-1,-1.1115847E0,-3.1237674E-1,-4.5484516E-1,-9.503666E-1,-7.9792535E-1,2.5442275E-1,-1.1608499E0,-2.4788935E-1,2.526337E-1,2.8307438E0,-1.3133816E0,-4.1758272E-1,4.1804516E-1,3.259172E0,2.9064983E-2,5.63805E-1,9.766709E-1,2.505526E-1,-3.001271E-1,1.1551827E-1,-4.7503456E-1,-7.3669463E-1,3.889558E-1,-3.8792145E-1,5.940678E-1,-6.4787325E-3,-1.1253586E0,-9.6918434E-2,-1.3765302E-1,4.506351E-1,7.53999E-1,-1.4930293E-1,4.580675E-1,-9.275122E-1,-1.4032258E-1,-2.2934211E-2,-2.555398E-1,1.1762642E-1,-4.1510653E-1,-3.835688E-1,5.9937224E-2,2.986638E-1,-3.1558102E-1,-5.8926597E-2,-1.9227106E-2,-3.3253697E-1,-6.958157E-1,-6.9148874E-1,-2.1196963E-1,-6.317448E-1,-3.86481E-1,-9.778057E-3,9.2307615E-1,-4.2121887E-1,-5.512011E-2,-2.505404E-1,2.8956386E-1,-1.8394325E-2,-3.4731086E-2,2.0123513E-1,-1.8000422E-1,5.797634E-3,-7.637562E-2,-2.94729E-1,-1.0720688E0,1.2484801E-1,-3.108979E-1,-1.8397145E-1,8.544706E-3,1.7980285E-1,8.639923E-2,-2.0116284E-1,-2.542714E-1,-4.8830578E-1,-1.02817364E-1,-7.6822966E-1,1.05426796E-1,-2.0475301E-1,3.12167E-1,1.8131318E-2,-1.6361661E-1,1.0811497E-1,4.9518845E-3,2.6585934E-1,1.6802241E-1,-2.0143136E-1,-3.1883848E-1,-1.132033E-2,1.3311596E-1,-2.303076E-2],"split_indices":[0,12,33,6,6,3,0,8,21,9,4,40,8,46,49,9,21,5,39,0,44,0,40,1,0,0,0,0,13,4,21,19,0,8,8,3,4,38,33,0,42,0,0,0,0,8,11,0,0,0,0,0,21,9,9,0,40,0,3,40,33,0,0,0,0,0,0,0,0,0,0,9,0,21,12,0,0,0,0,4,5,42,40,0,0,0,0,0,0,0,0,0,0,0,0,0,0],"split_type":[0,0,0,0,0,0,0,0,0,0,0,0,0,0,0,0,0,0,0,0,0,0,0,0,0,0,0,0,0,0,0,0,0,0,0,0,0,0,0,0,0,0,0,0,0,0,0,0,0,0,0,0,0,0,0,0,0,0,0,0,0,0,0,0,0,0,0,0,0,0,0,0,0,0,0,0,0,0,0,0,0,0,0,0,0,0,0,0,0,0,0,0,0,0,0,0,0],"sum_hessian":[5.87E2,4.66E2,1.21E2,1.64E2,3.02E2,1.14E2,7E0,8.7E1,7.7E1,1.47E2,1.55E2,9.8E1,1.6E1,1.5E1,7.2E1,4.1E1,3.6E1,8.5E1,6.2E1,1E1,1.45E2,6E0,9.2E1,1.1E1,5E0,6E0,9E0,5.5E1,1.7E1,2.9E1,1.2E1,3.1E1,5E0,1.9E1,6.6E1,1.8E1,4.4E1,1.31E2,1.4E1,7.7E1,1.5E1,6E0,5E0,1.2E1,5E0,1.5E1,1.4E1,5E0,7E0,2.6E1,5E0,7E0,1.2E1,3.4E1,3.2E1,5E0,1.3E1,2.7E1,1.7E1,9.5E1,3.6E1,5E0,9E0,7E0,8E0,7E0,8E0,9E0,5E0,5E0,7E0,2.5E1,9E0,2.1E1,1.1E1,6E0,7E0,9E0,8E0,7.3E1,2.2E1,1.5E1,2.1E1,8E0,1.7E1,1.6E1,5E0,5E0,6E0,1.9E1,5.4E1,8E0,1.4E1,1E1,5E0,1.1E1,1E1],"tree_param":{"num_deleted":"0","num_feature":"51","num_nodes":"97","size_leaf_vector":"1"}},{"base_weights":[7.289544E-1,-2.5551796E0,1.2532417E1,-7.1580176E0,2.2780807E0,1.413295E1,-3.2549863E0,-1.1956364E1,5.728757E-1,1.0499295E1,-7.5814784E-1,1.5361679E1,5.211964E0,-1.9145277E-1,4.9940683E-2,-1.3229584E1,2.589193E-1,-2.5946838E-1,2.5158513E0,2.067171E-3,1.1784877E1,-2.3424635E0,6.917419E0,4.69126E-1,9.624881E0,2.8444934E-1,2.543656E-1,-1.4326137E1,5.0404098E-2,6.484006E0,-3.5982683E0,1.2493973E1,5.7647675E-2,-3.02524E0,2.2160491E-1,3.3894292E-1,8.3353865E-1,6.249272E0,3.780414E-1,-3.7021562E-2,5.7272032E-2,-1.5006851E1,4.0353082E-2,-2.67266E0,1.0039549E1,4.2734362E-2,-5.604255E0,1.4766975E1,5.268739E0,-1.2186704E0,-9.348974E0,1.8103616E-1,-3.2350132E0,-2.9668802E-1,2.642062E-1,-1.6485552E1,-8.895755E0,6.603532E-2,-1.5816301E-1,3.2191855E-1,1.8369192E0,-7.899793E0,3.8099814E-2,1.1351955E-1,1.5721458E1,2.3474962E-1,-2.5683554E-2,3.9083257E0,-2.8296332E0,-3.9545054E0,-3.0243456E-1,-1.2373742E-2,-1.18837826E-1,4.255995E-2,-6.0478143E-2,-4.381586E-1,-9.9947624E-2,7.823602E-2,-2.9273918E-1,-2.8350055E-2,1.01302E-1,-2.3584733E-2,-2.6382795E-1,4.403338E-1,1.1403793E-1,2.018608E-1,-6.592038E-2,-1.14544116E-1,1.4261298E-1,4.5574684E-2,-2.3049548E-1],"categories":[],"categories_nodes":[],"categories_segments":[],"categories_sizes":[],"default_left":[0,0,0,0,0,0,0,0,0,0,0,0,0,0,0,0,0,0,0,0,0,0,0,0,0,0,0,0,0,0,0,0,0,0,0,0,0,0,0,0,0,0,0,0,0,0,0,0,0,0,0,0,0,0,0,0,0,0,0,0,0,0,0,0,0,0,0,0,0,0,0,0,0,0,0,0,0,0,0,0,0,0,0,0,0,0,0,0,0,0,0],"id":4,"left_children":[1,3,5,7,9,11,13,15,17,19,21,23,25,-1,-1,27,-1,-1,29,-1,31,33,35,-1,37,-1,39,41,-1,43,45,47,-1,49,-1,-1,51,53,-1,-1,-1,55,-1,57,59,-1,61,63,65,67,69,-1,71,73,-1,75,77,-1,-1,-1,79,81,-1,-1,83,-1,-1,85,87,89,-1,-1,-1,-1,-1,-1,-1,-1,-1,-1,-1,-1,-1,-1,-1,-1,-1,-1,-1,-1,-1],"loss_changes":[2.314956E4,1.0493909E4,3.5177207E3,8.978897E3,5.8350845E3,8.951582E2,4.1759222E2,4.824506E3,2.119072E3,8.31166E2,2.192583E3,7.496738E2,6.0948596E2,0E0,0E0,2.5251797E3,0E0,0E0,2.2023594E3,0E0,2.321372E2,1.2275356E3,1.1038499E3,0E0,2.769751E2,0E0,7.224164E1,1.5727539E3,0E0,1.8935498E3,4.3747324E2,4.3953174E2,0E0,1.5701809E3,0E0,0E0,6.402321E2,9.2987305E2,0E0,0E0,0E0,4.242754E2,0E0,4.2085504E2,6.6939624E2,0E0,5.156293E2,2.0654297E0,5.259614E2,1.0199287E3,1.5412427E2,0E0,4.5874176E1,9.073445E1,0E0,2.3943945E2,1.216112E3,0E0,0E0,0E0,1.1430687E2,3.0090686E2,0E0,0E0,7.514111E1,0E0,0E0,8.563419E2,1.3497593E3,5.630636E2,0E0,0E0,0E0,0E0,0E0,0E0,0E0,0E0,0E0,0E0,0E0,0E0,0E0,0E0,0E0,0E0,0E0,0E0,0E0,0E0,0E0],"parents":[2147483647,0,0,1,1,2,2,3,3,4,4,5,5,6,6,7,7,8,8,9,9,10,10,11,11,12,12,15,15,18,18,20,20,21,21,22,22,24,24,26,26,27,27,29,29,30,30,31,31,33,33,36,36,37,37,41,41,43,43,44,44,46,46,47,47,48,48,49,49,50,50,52,52,53,53,55,55,56,56,60,60,61,61,64,64,67,67,68,68,69,69],"right_children":[2,4,6,8,10,12,14,16,18,20,22,24,26,-1,-1,28,-1,-1,30,-1,32,34,36,-1,38,-1,40,42,-1,44,46,48,-1,50,-1,-1,52,54,-1,-1,-1,56,-1,58,60,-1,62,64,66,68,70,-1,72,74,-1,76,78,-1,-1,-1,80,82,-1,-1,84,-1,-1,86,88,90,-1,-1,-1,-1,-1,-1,-1,-1,-1,-1,-1,-1,-1,-1,-1,-1,-1,-1,-1,-1,-1],"split_conditions":[5.880902E-1,8.7677693E-1,9.9926454E-1,-4.8727695E-2,-5.267309E-1,5.63805E-1,-8.496591E-2,1.8458018E0,-9.1512126E-1,2.6557958E-1,8.125634E-1,3.1144416E-1,9.3522E-1,-1.9145277E-1,4.9940683E-2,3.4008312E0,2.589193E-1,-2.5946838E-1,-5.261587E-1,2.067171E-3,4.828983E-2,2.1431925E0,4.5313872E-2,4.69126E-1,4.0705153E-1,2.8444934E-1,7.4811345E-1,1.8016094E0,5.0404098E-2,-7.367441E-1,-1.7825834E-1,-3.8030185E-2,5.7647675E-2,9.3522E-1,2.2160491E-1,3.3894292E-1,1.6733298E-2,-3.525421E-1,3.780414E-1,-3.7021562E-2,5.7272032E-2,-3.431037E-1,4.0353082E-2,1.0889131E0,1.1900194E0,4.2734362E-2,6.8854105E-1,-1.6380441E0,-4.707047E-1,-4.7080278E-1,1.10666305E-2,1.8103616E-1,4.8816895E-1,8.0009675E-1,2.642062E-1,1.3344531E0,4.56179E-1,6.603532E-2,-1.5816301E-1,3.2191855E-1,1.4111586E0,-1.1867018E-1,3.8099814E-2,1.1351955E-1,5.4755974E-1,2.3474962E-1,-2.5683554E-2,3.1800303E-1,2.1261075E0,9.142039E-1,-3.0243456E-1,-1.2373742E-2,-1.18837826E-1,4.255995E-2,-6.0478143E-2,-4.381586E-1,-9.9947624E-2,7.823602E-2,-2.9273918E-1,-2.8350055E-2,1.01302E-1,-2.3584733E-2,-2.6382795E-1,4.403338E-1,1.1403793E-1,2.018608E-1,-6.592038E-2,-1.14544116E-1,1.4261298E-1,4.5574684E-2,-2.3049548E-1],"split_indices":[0,6,34,11,37,40,11,46,4,39,8,9,28,0,0,36,0,0,9,0,15,49,4,0,46,0,40,49,0,8,39,1,0,28,0,0,15,21,0,0,0,1,0,16,13,0,4,40,13,37,15,0,40,3,0,21,28,0,0,0,13,28,0,0,4,0,0,11,36,24,0,0,0,0,0,0,0,0,0,0,0,0,0,0,0,0,0,0,0,0,0],"split_type":[0,0,0,0,0,0,0,0,0,0,0,0,0,0,0,0,0,0,0,0,0,0,0,0,0,0,0,0,0,0,0,0,0,0,0,0,0,0,0,0,0,0,0,0,0,0,0,0,0,0,0,0,0,0,0,0,0,0,0,0,0,0,0,0,0,0,0,0,0,0,0,0,0,0,0,0,0,0,0,0,0,0,0,0,0,0,0,0,0,0,0],"sum_hessian":[5.88E2,4.63E2,1.25E2,2.36E2,2.27E2,1.14E2,1.1E1,1.44E2,9.2E1,5.8E1,1.69E2,9.7E1,1.7E1,5E0,6E0,1.38E2,6E0,1.1E1,8.1E1,7E0,5.1E1,1.43E2,2.6E1,5.8E1,3.9E1,5E0,1.2E1,1.29E2,9E0,4.9E1,3.2E1,4.6E1,5E0,1.38E2,5E0,1E1,1.6E1,3E1,9E0,7E0,5E0,1.24E2,5E0,1.4E1,3.5E1,9E0,2.3E1,3.1E1,1.5E1,1.12E2,2.6E1,5E0,1.1E1,1.3E1,1.7E1,9.3E1,3.1E1,6E0,8E0,2.5E1,1E1,1.7E1,6E0,5E0,2.6E1,8E0,7E0,2.5E1,8.7E1,1.2E1,1.4E1,6E0,5E0,7E0,6E0,8.8E1,5E0,5E0,2.6E1,5E0,5E0,6E0,1.1E1,2.1E1,5E0,1.5E1,1E1,7.5E1,1.2E1,7E0,5E0],"tree_param":{"num_deleted":"0","num_feature":"51","num_nodes":"91","size_leaf_vector":"1"}},{"base_weights":[-3.1004333E-1,-3.2919471E0,1.2705305E1,-7.3117275E0,1.0484142E0,4.758007E0,1.5620799E1,-1.3824429E1,-3.8222213E0,3.5996964E0,-8.847861E0,3.6194244E-1,7.075845E-1,6.203471E-2,1.6935595E1,-1.635292E1,-4.374667E0,-4.669874E0,2.4146459E-1,9.812443E0,1.6941661E0,-3.005701E-1,-1.2814595E1,-2.515241E0,1.7903283E-1,4.5627478E-1,1.2848985E-1,-1.0883506E-1,-1.7210556E1,6.2050626E-2,-2.3216046E-1,-7.261601E0,1.7715265E0,1.3012697E1,3.1963303E0,-3.7940583E-1,9.322564E0,-1.7917225E-1,4.6142273E0,-8.357765E-2,-3.591657E-1,8.8466525E-2,-5.008379E0,-1.8321087E1,-1.3211553E-1,-1.0655641E1,-1.3876454E0,4.7608805E0,-6.227908E0,3.802645E-1,6.6147186E-2,-5.3372808E-2,1.8827467E-1,-2.4244099E0,7.862014E0,1.3311828E1,-8.141856E-2,-4.659443E-2,2.2742058E-1,-1.6011937E-1,-2.0474704E-2,-1.5667883E-1,-4.9719867E-1,-2.0116007E0,-1.30506115E1,-5.728717E0,2.5693045E0,-4.5428075E-2,6.95749E0,-2.3019011E-1,-3.1466016E-3,5.4363885E0,-3.8504667E0,1.1234576E1,-7.981884E-2,1.0675566E-1,3.8819033E-1,-1.9149828E-1,1.4273615E-1,-3.7136647E-1,6.6385535E-3,3.9805677E-2,-2.4932514E-1,2.0698458E-1,-1.4267346E-2,-2.5459377E-2,2.2485988E-1,6.225296E-3,1.8877119E-1,2.8820405E-2,-1.4790176E-1,3.4116095E-1,1.0954293E-1],"categories":[],"categories_nodes":[],"categories_segments":[],"categories_sizes":[],"default_left":[0,0,0,0,0,0,0,0,0,0,0,0,0,0,0,0,0,0,0,0,0,0,0,0,0,0,0,0,0,0,0,0,0,0,0,0,0,0,0,0,0,0,0,0,0,0,0,0,0,0,0,0,0,0,0,0,0,0,0,0,0,0,0,0,0,0,0,0,0,0,0,0,0,0,0,0,0,0,0,0,0,0,0,0,0,0,0,0,0,0,0,0,0],"id":5,"left_children":[1,3,5,7,9,11,13,15,17,19,21,-1,23,-1,25,27,29,31,-1,33,35,37,39,41,-1,-1,-1,-1,43,-1,-1,45,47,49,51,53,55,-1,57,-1,-1,-1,59,61,-1,63,65,67,69,-1,-1,-1,-1,71,73,75,-1,-1,-1,-1,-1,-1,-1,77,79,81,83,-1,85,-1,-1,87,89,91,-1,-1,-1,-1,-1,-1,-1,-1,-1,-1,-1,-1,-1,-1,-1,-1,-1,-1,-1],"loss_changes":[2.3097139E4,8.48532E3,2.1904922E3,5.4535293E3,6.1367246E3,1.3254241E3,1.1593242E3,1.6869648E3,2.1204111E3,2.1830474E3,1.6662544E3,0E0,7.091235E2,0E0,1.6088281E2,3.1510938E2,8.8942737E2,2.8039731E3,0E0,7.147676E2,2.4423096E3,8.4228265E2,1.18859375E2,4.402491E2,0E0,0E0,0E0,0E0,3.2785547E2,0E0,0E0,2.270857E3,1.3640022E3,2.9958447E2,5.2809314E2,2.1967112E3,1.852905E3,0E0,4.8407214E2,0E0,0E0,0E0,6.619571E1,1.6777344E0,0E0,1.39171E3,9.1550085E2,6.3564557E2,2.498097E2,0E0,0E0,0E0,0E0,1.26777E3,1.1347788E3,8.8024414E1,0E0,0E0,0E0,0E0,0E0,0E0,0E0,1.0958821E3,1.0251602E3,7.887989E2,5.1784094E2,0E0,4.7533276E2,0E0,0E0,1.6071918E2,8.796511E2,4.9291992E-1,0E0,0E0,0E0,0E0,0E0,0E0,0E0,0E0,0E0,0E0,0E0,0E0,0E0,0E0,0E0,0E0,0E0,0E0,0E0],"parents":[2147483647,0,0,1,1,2,2,3,3,4,4,5,5,6,6,7,7,8,8,9,9,10,10,12,12,14,14,15,15,16,16,17,17,19,19,20,20,21,21,22,22,23,23,28,28,31,31,32,32,33,33,34,34,35,35,36,36,38,38,42,42,43,43,45,45,46,46,47,47,48,48,53,53,54,54,55,55,63,63,64,64,65,65,66,66,68,68,71,71,72,72,73,73],"right_children":[2,4,6,8,10,12,14,16,18,20,22,-1,24,-1,26,28,30,32,-1,34,36,38,40,42,-1,-1,-1,-1,44,-1,-1,46,48,50,52,54,56,-1,58,-1,-1,-1,60,62,-1,64,66,68,70,-1,-1,-1,-1,72,74,76,-1,-1,-1,-1,-1,-1,-1,78,80,82,84,-1,86,-1,-1,88,90,92,-1,-1,-1,-1,-1,-1,-1,-1,-1,-1,-1,-1,-1,-1,-1,-1,-1,-1,-1],"split_conditions":[7.4282074E-1,8.7677693E-1,-2.4788935E-1,-4.4406536E-1,-5.034294E-2,1.7419489E-1,-5.5837375E-1,-1.1098255E-1,2.8996851E0,-3.9133838E-1,-8.35308E-1,3.6194244E-1,2.0284705E0,6.203471E-2,1.4323381E0,-1.0905046E0,6.782294E-1,8.513838E-1,2.4146459E-1,-3.4950715E-1,9.187539E-1,6.8413985E-1,-8.6114444E-2,-4.3673044E-1,1.7903283E-1,4.5627478E-1,1.2848985E-1,-1.0883506E-1,-2.4788935E-1,6.2050626E-2,-2.3216046E-1,3.3862755E-1,3.0388612E-2,-1.2196729E-1,-2.4422595E-1,7.4171174E-1,5.113837E-1,-1.7917225E-1,-1.1444743E0,-8.357765E-2,-3.591657E-1,8.8466525E-2,-3.736712E-1,-1.692504E0,-1.3211553E-1,-7.6655835E-1,-1.5694271E-1,-6.4699316E-1,2.1994228E0,3.802645E-1,6.6147186E-2,-5.3372808E-2,1.8827467E-1,-1.3999645E-1,-3.567212E-1,-5.639029E-1,-8.141856E-2,-4.659443E-2,2.2742058E-1,-1.6011937E-1,-2.0474704E-2,-1.5667883E-1,-4.9719867E-1,-5.774294E-2,1.7093779E0,4.6617794E-1,-1.2482995E0,-4.5428075E-2,-9.636729E-1,-2.3019011E-1,-3.1466016E-3,-2.65528E-1,-5.258504E-1,-3.4683317E-1,-7.981884E-2,1.0675566E-1,3.8819033E-1,-1.9149828E-1,1.4273615E-1,-3.7136647E-1,6.6385535E-3,3.9805677E-2,-2.4932514E-1,2.0698458E-1,-1.4267346E-2,-2.5459377E-2,2.2485988E-1,6.225296E-3,1.8877119E-1,2.8820405E-2,-1.4790176E-1,3.4116095E-1,1.0954293E-1],"split_indices":[0,6,49,12,21,1,16,1,23,17,9,0,2,0,13,8,1,36,0,21,8,25,41,12,0,0,0,0,49,0,0,25,21,12,21,10,25,0,8,0,0,0,21,16,0,38,12,6,21,0,0,0,0,39,41,3,0,0,0,0,0,0,0,12,32,13,38,0,38,0,0,3,41,16,0,0,0,0,0,0,0,0,0,0,0,0,0,0,0,0,0,0,0],"split_type":[0,0,0,0,0,0,0,0,0,0,0,0,0,0,0,0,0,0,0,0,0,0,0,0,0,0,0,0,0,0,0,0,0,0,0,0,0,0,0,0,0,0,0,0,0,0,0,0,0,0,0,0,0,0,0,0,0,0,0,0,0,0,0,0,0,0,0,0,0,0,0,0,0,0,0,0,0,0,0,0,0,0,0,0,0,0,0,0,0,0,0,0,0],"sum_hessian":[5.85E2,4.79E2,1.06E2,2.47E2,2.32E2,3.2E1,7.4E1,8.1E1,1.66E2,1.87E2,4.5E1,6E0,2.6E1,8E0,6.6E1,6.1E1,2E1,1.59E2,7E0,3.9E1,1.48E2,1.6E1,2.9E1,1.9E1,7E0,6E1,6E0,6E0,5.5E1,9E0,1.1E1,1.13E2,4.6E1,2.3E1,1.6E1,1.2E2,2.8E1,6E0,1E1,5E0,2.4E1,5E0,1.4E1,4.8E1,7E0,6.9E1,4.4E1,3.5E1,1.1E1,1.8E1,5E0,8E0,8E0,9.9E1,2.1E1,2.1E1,7E0,5E0,5E0,9E0,5E0,6E0,4.2E1,1.7E1,5.2E1,2E1,2.4E1,9E0,2.6E1,6E0,5E0,1.3E1,8.6E1,1.6E1,5E0,6E0,1.5E1,1E1,7E0,4.7E1,5E0,8E0,1.2E1,6E0,1.8E1,5E0,2.1E1,5E0,8E0,2.4E1,6.2E1,9E0,7E0],"tree_param":{"num_deleted":"0","num_feature":"51","num_nodes":"93","size_leaf_vector":"1"}},{"base_weights":[-8.15753E-1,-3.7449224E0,1.1773035E1,-7.479106E0,5.078415E-1,1.3249444E1,-1.17129795E-1,-1.0711938E1,-9.168722E-1,3.1935658E0,-8.273446E0,1.5207741E1,4.6105862E-1,-1.1784013E1,2.4337454E0,1.0571167E0,-9.162483E0,7.9323215E0,-2.264773E0,-1.148181E1,1.4713821E0,7.2374105E-2,4.1982138E-1,-9.56561E-2,1.3521871E-1,-1.2852172E1,-2.1913562E0,2.3560432E-1,-1.3675956E-1,-3.4475434E0,3.7028484E0,-2.8515453E-2,-3.283106E-1,1.1155924E1,5.4849663E0,3.455173E0,-6.8566284E0,-3.0794505E-2,-1.2698265E1,-1.1031782E-1,1.3870451E-1,-1.5383964E1,-6.47455E0,2.4449134E0,-1.8445455E-1,1.2095987E-1,-6.3549047E0,-2.8930686E0,6.870518E0,3.5838062E-1,5.3776283E0,7.228176E0,-8.811747E-2,-1.9599471E0,7.956308E0,-9.8154926E-1,-1.092997E1,-9.8889224E-2,-3.6495435E-1,-7.9642795E-2,-1.587519E1,-1.9055133E0,-1.0825455E1,-3.0903377E-2,1.274706E-1,-8.448466E0,2.4340088E-2,4.2303495E-2,-1.9161816E-1,2.3403005E-1,2.5147374E0,1.9310127E-1,-9.824356E-3,8.822984E0,9.463398E-1,1.1554483E-1,-5.017905E0,2.85664E-1,4.5819182E-2,1.2391687E-1,-5.4847536E0,-3.4512758E-1,-9.1614895E-2,-1.4604211E-1,-4.3328932E-1,-1.5018882E-1,2.8819675E-2,-3.6957076E-1,2.8722804E-2,-1.5489117E-2,-2.8004783E-1,-7.05827E-2,1.397841E-1,2.5653777E-1,1.4825884E-3,1.3872832E-1,-9.94029E-2,-1.8835111E-1,-2.092362E-2,-1.9990608E-1,-0E0],"categories":[],"categories_nodes":[],"categories_segments":[],"categories_sizes":[],"default_left":[0,0,0,0,0,0,0,0,0,0,0,0,0,0,0,0,0,0,0,0,0,0,0,0,0,0,0,0,0,0,0,0,0,0,0,0,0,0,0,0,0,0,0,0,0,0,0,0,0,0,0,0,0,0,0,0,0,0,0,0,0,0,0,0,0,0,0,0,0,0,0,0,0,0,0,0,0,0,0,0,0,0,0,0,0,0,0,0,0,0,0,0,0,0,0,0,0,0,0,0,0],"id":6,"left_children":[1,3,5,7,9,11,-1,13,15,17,19,21,23,25,27,29,31,33,35,37,39,-1,-1,-1,-1,41,43,-1,-1,45,47,-1,-1,49,51,53,55,-1,57,-1,-1,59,61,63,-1,-1,65,67,69,-1,71,73,-1,75,77,79,81,-1,-1,-1,83,85,87,-1,-1,89,-1,-1,-1,-1,91,-1,-1,93,95,-1,97,-1,-1,-1,99,-1,-1,-1,-1,-1,-1,-1,-1,-1,-1,-1,-1,-1,-1,-1,-1,-1,-1,-1,-1],"loss_changes":[2.1856531E4,7.64491E3,2.99712E3,5.374033E3,5.5270166E3,2.5588105E3,0E0,2.5567695E3,1.5169252E3,4.7209033E3,1.8075994E3,9.1815625E2,4.7284402E2,1.4800645E3,1.11552E3,9.8033856E2,4.340973E2,4.5194385E2,2.4029043E3,4.416748E2,5.151284E2,0E0,0E0,0E0,0E0,1.7858789E3,5.9232007E2,0E0,0E0,8.79335E2,1.1651984E3,0E0,0E0,1.9780127E2,1.1311677E3,1.103211E3,1.1348501E3,0E0,1.8771875E2,0E0,0E0,3.3830664E2,8.631377E2,1.6677452E2,0E0,0E0,4.250448E2,4.7199097E2,2.221886E2,0E0,2.5881543E2,5.131594E2,0E0,5.6246674E2,3.5358447E2,8.0530426E2,2.7342603E2,0E0,0E0,0E0,3.620293E2,3.881667E2,1.0793887E3,0E0,0E0,3.3443164E2,0E0,0E0,0E0,0E0,3.6223404E2,0E0,0E0,4.156189E2,4.620294E2,0E0,1.372067E2,0E0,0E0,0E0,2.0479193E2,0E0,0E0,0E0,0E0,0E0,0E0,0E0,0E0,0E0,0E0,0E0,0E0,0E0,0E0,0E0,0E0,0E0,0E0,0E0,0E0],"parents":[2147483647,0,0,1,1,2,2,3,3,4,4,5,5,7,7,8,8,9,9,10,10,11,11,12,12,13,13,14,14,15,15,16,16,17,17,18,18,19,19,20,20,25,25,26,26,29,29,30,30,33,33,34,34,35,35,36,36,38,38,41,41,42,42,43,43,46,46,47,47,48,48,50,50,51,51,53,53,54,54,55,55,56,56,60,60,61,61,62,62,65,65,70,70,73,73,74,74,76,76,80,80],"right_children":[2,4,6,8,10,12,-1,14,16,18,20,22,24,26,28,30,32,34,36,38,40,-1,-1,-1,-1,42,44,-1,-1,46,48,-1,-1,50,52,54,56,-1,58,-1,-1,60,62,64,-1,-1,66,68,70,-1,72,74,-1,76,78,80,82,-1,-1,-1,84,86,88,-1,-1,90,-1,-1,-1,-1,92,-1,-1,94,96,-1,98,-1,-1,-1,100,-1,-1,-1,-1,-1,-1,-1,-1,-1,-1,-1,-1,-1,-1,-1,-1,-1,-1,-1,-1],"split_conditions":[7.4282074E-1,8.7677693E-1,9.9926454E-1,5.9986945E-2,-1.1190219E-1,5.63805E-1,-1.17129795E-1,1.7695266E0,1.2238727E0,4.4734143E-2,2.1261075E0,-6.9919676E-1,3.468697E-3,2.1261075E0,-6.2227476E-1,-3.6439818E-1,4.459116E-1,-1.1064909E0,-2.0895125E-1,-1.4657032E0,5.4278725E-1,7.2374105E-2,4.1982138E-1,-9.56561E-2,1.3521871E-1,-3.6963186E-1,-4.967681E-1,2.3560432E-1,-1.3675956E-1,4.3106624E-1,-5.879721E-1,-2.8515453E-2,-3.283106E-1,1.3851098E0,9.751966E-1,-3.081933E-1,-3.2179222E-1,-3.0794505E-2,-1.4678161E0,-1.1031782E-1,1.3870451E-1,-1.6569552E0,4.340866E-1,-5.8254015E-1,-1.8445455E-1,1.2095987E-1,2.5727326E-1,-3.1443888E-1,-6.9148874E-1,3.5838062E-1,-5.4358107E-1,2.0087224E-1,-8.811747E-2,-5.2440053E-1,5.5198723E-1,-3.82604E-1,-1.5604259E-1,-9.8889224E-2,-3.6495435E-1,-7.9642795E-2,-3.982394E-1,-2.3035915E-1,4.3335968E-1,-3.0903377E-2,1.274706E-1,-3.0673686E-1,2.4340088E-2,4.2303495E-2,-1.9161816E-1,2.3403005E-1,1.3283244E0,1.9310127E-1,-9.824356E-3,4.6259353E-1,-6.975482E-1,1.1554483E-1,-1.0371318E-1,2.85664E-1,4.5819182E-2,1.2391687E-1,1.4304678E0,-3.4512758E-1,-9.1614895E-2,-1.4604211E-1,-4.3328932E-1,-1.5018882E-1,2.8819675E-2,-3.6957076E-1,2.8722804E-2,-1.5489117E-2,-2.8004783E-1,-7.05827E-2,1.397841E-1,2.5653777E-1,1.4825884E-3,1.3872832E-1,-9.94029E-2,-1.8835111E-1,-2.092362E-2,-1.9990608E-1,-0E0],"split_indices":[22,6,34,11,47,40,0,46,33,40,36,40,17,36,37,34,12,40,18,5,42,0,0,0,0,1,5,0,0,11,46,0,0,42,42,11,12,0,11,0,0,9,5,12,0,0,17,41,9,0,33,17,0,37,28,47,19,0,0,0,47,1,22,0,0,17,0,0,0,0,11,0,0,12,40,0,9,0,0,0,40,0,0,0,0,0,0,0,0,0,0,0,0,0,0,0,0,0,0,0,0],"split_type":[0,0,0,0,0,0,0,0,0,0,0,0,0,0,0,0,0,0,0,0,0,0,0,0,0,0,0,0,0,0,0,0,0,0,0,0,0,0,0,0,0,0,0,0,0,0,0,0,0,0,0,0,0,0,0,0,0,0,0,0,0,0,0,0,0,0,0,0,0,0,0,0,0,0,0,0,0,0,0,0,0,0,0,0,0,0,0,0,0,0,0,0,0,0,0,0,0,0,0,0,0],"sum_hessian":[5.82E2,4.75E2,1.07E2,2.51E2,2.24E2,9.9E1,8E0,1.66E2,8.5E1,1.74E2,5E1,8.5E1,1.4E1,1.54E2,1.2E1,7.2E1,1.3E1,9.2E1,8.2E1,3.7E1,1.3E1,8E0,7.7E1,8E0,6E0,1.37E2,1.7E1,6E0,6E0,2.6E1,4.6E1,6E0,7E0,3.2E1,6E1,3.7E1,4.5E1,5E0,3.2E1,5E0,8E0,9.3E1,4.4E1,1E1,7E0,6E0,2E1,1.5E1,3.1E1,1.7E1,1.5E1,5.1E1,9E0,1.8E1,1.9E1,2.1E1,2.4E1,7E0,2.5E1,5E0,8.8E1,2.5E1,1.9E1,5E0,5E0,1.5E1,5E0,9E0,6E0,1.7E1,1.4E1,1E1,5E0,3.9E1,1.2E1,5E0,1.3E1,1E1,9E0,9E0,1.2E1,1.5E1,9E0,1E1,7.8E1,9E0,1.6E1,1.4E1,5E0,5E0,1E1,5E0,9E0,3.4E1,5E0,6E0,6E0,6E0,7E0,7E0,5E0],"tree_param":{"num_deleted":"0","num_feature":"51","num_nodes":"101","size_leaf_vector":"1"}},{"base_weights":[3.6025938E-1,-2.6982396E0,1.2155225E1,-7.0740023E0,2.1664047E0,2.5622895E0,1.5795559E1,-1.0673135E1,-6.135539E-1,7.878569E0,-1.5628889E0,-2.1306453E0,8.1051655E0,8.723259E-2,1.6348953E1,-1.181764E1,1.6864605E-1,1.136128E0,-2.836052E-1,1.01970825E1,9.910088E-1,-7.739192E0,2.5641239E0,-1.5354519E-1,7.59124E-2,-1.120369E-1,3.656512E-1,4.3549848E-1,1.12132244E-1,-1.2518608E1,6.7719035E-2,5.4614754E0,-5.6840515E0,1.3222745E1,1.6501305E0,1.7414711E-1,-2.9535763E0,3.7651397E-2,-8.9757395E0,-8.214143E0,4.5008626E0,-1.3003897E1,9.702158E-3,-2.1908154E0,7.9236994E0,-2.7316228E-1,5.787549E-1,1.5247886E1,4.3907533E0,6.448356E0,-1.3922003E-1,-3.7481172E-3,-1.328802E-1,-9.978853E0,-1.9249901E-2,-3.0665802E-2,-2.867784E-1,7.007264E0,-8.1741085E0,-1.4588495E1,-7.472853E0,-1.2170333E-1,4.809225E-2,1.0314925E1,1.8486761E0,-1.3458592E-1,1.10591404E-1,9.196742E-2,4.3748224E-1,-1.9651014E-2,1.8464275E-1,2.1704356E-1,4.4135746E-2,-6.951834E-2,-1.0744453E1,8.9602165E0,-2.7113223E0,-2.9127342E-1,-2.461576E-2,-3.911389E-1,-8.19124E-2,2.3244673E-2,-2.6730934E-1,6.893598E-2,2.9298243E-1,1.2393353E-1,-4.0440474E-2,-3.0226392E-1,-5.421481E-2,3.5841915E-1,1.0774559E-1,3.5011414E-2,-1.419263E-1],"categories":[],"categories_nodes":[],"categories_segments":[],"categories_sizes":[],"default_left":[0,0,0,0,0,0,0,0,0,0,0,0,0,0,0,0,0,0,0,0,0,0,0,0,0,0,0,0,0,0,0,0,0,0,0,0,0,0,0,0,0,0,0,0,0,0,0,0,0,0,0,0,0,0,0,0,0,0,0,0,0,0,0,0,0,0,0,0,0,0,0,0,0,0,0,0,0,0,0,0,0,0,0,0,0,0,0,0,0,0,0,0,0],"id":7,"left_children":[1,3,5,7,9,11,13,15,17,19,21,23,25,-1,27,29,-1,31,-1,33,35,37,39,-1,-1,-1,-1,-1,-1,41,-1,43,45,47,49,-1,51,-1,53,55,57,59,-1,61,63,-1,65,67,69,71,-1,-1,-1,73,-1,-1,-1,75,77,79,81,-1,-1,83,85,-1,-1,-1,-1,-1,-1,-1,-1,-1,87,89,91,-1,-1,-1,-1,-1,-1,-1,-1,-1,-1,-1,-1,-1,-1,-1,-1],"loss_changes":[2.1017363E4,9.933324E3,3.9771895E3,5.656127E3,4.814056E3,1.1021598E3,3.0569336E2,3.4737812E3,1.7523374E3,1.3634824E3,3.6430134E3,5.697669E2,1.7331896E3,0E0,1.1162891E2,1.6756953E3,0E0,2.6297554E3,0E0,1.5882798E3,7.342207E2,7.1684033E2,1.9955127E3,0E0,0E0,0E0,0E0,0E0,0E0,9.2638477E2,0E0,1.1058138E3,1.1053927E3,5.1433105E2,9.4712744E2,0E0,1.1558847E2,0E0,3.7726562E2,2.2992664E2,2.7270054E3,6.5625195E2,0E0,2.179426E2,5.075205E2,0E0,5.365847E2,4.1418457E2,2.5691354E2,7.017462E1,0E0,0E0,0E0,9.96167E1,0E0,0E0,0E0,1.3946277E3,2.7343536E2,3.8521094E2,1.0353662E3,0E0,0E0,6.7713135E1,2.1956055E2,0E0,0E0,0E0,0E0,0E0,0E0,0E0,0E0,0E0,1.900586E2,1.0418452E3,2.0825032E2,0E0,0E0,0E0,0E0,0E0,0E0,0E0,0E0,0E0,0E0,0E0,0E0,0E0,0E0,0E0,0E0],"parents":[2147483647,0,0,1,1,2,2,3,3,4,4,5,5,6,6,7,7,8,8,9,9,10,10,11,11,12,12,14,14,15,15,17,17,19,19,20,20,21,21,22,22,29,29,31,31,32,32,33,33,34,34,36,36,38,38,39,39,40,40,41,41,43,43,44,44,46,46,47,47,48,48,49,49,53,53,57,57,58,58,59,59,60,60,63,63,64,64,74,74,75,75,76,76],"right_children":[2,4,6,8,10,12,14,16,18,20,22,24,26,-1,28,30,-1,32,-1,34,36,38,40,-1,-1,-1,-1,-1,-1,42,-1,44,46,48,50,-1,52,-1,54,56,58,60,-1,62,64,-1,66,68,70,72,-1,-1,-1,74,-1,-1,-1,76,78,80,82,-1,-1,84,86,-1,-1,-1,-1,-1,-1,-1,-1,-1,88,90,92,-1,-1,-1,-1,-1,-1,-1,-1,-1,-1,-1,-1,-1,-1,-1,-1],"split_conditions":[7.4282074E-1,8.7677693E-1,-2.4788935E-1,-4.8727695E-2,-4.6614212E-1,2.4466754E-1,-5.618608E-1,1.8152487E0,1.8515538E0,1.2777065E-1,-2.1252441E-1,1.3348007E0,-1.5896553E-1,8.723259E-2,1.450403E0,2.4847758E0,1.6864605E-1,-4.7794476E-1,-2.836052E-1,2.4842566E-1,-9.8085093E-1,-4.4974226E-1,-4.4516906E-1,-1.5354519E-1,7.59124E-2,-1.120369E-1,3.656512E-1,4.3549848E-1,1.12132244E-1,3.4008312E0,6.7719035E-2,-7.498536E-1,-3.6439818E-1,7.960693E-1,3.4355262E-1,1.7414711E-1,1.1184431E0,3.7651397E-2,2.4629586E0,-3.827284E-1,3.259172E0,-2.3699118E-1,9.702158E-3,8.937053E-2,1.100318E0,-2.7316228E-1,-1.1291962E0,-5.5363864E-1,-2.1021475E-1,-5.1740956E-1,-1.3922003E-1,-3.7481172E-3,-1.328802E-1,-3.6439818E-1,-1.9249901E-2,-3.0665802E-2,-2.867784E-1,6.2935114E-2,-7.916169E-2,2.1261075E0,4.56179E-1,-1.2170333E-1,4.809225E-2,5.708789E-2,-5.0487185E-1,-1.3458592E-1,1.10591404E-1,9.196742E-2,4.3748224E-1,-1.9651014E-2,1.8464275E-1,2.1704356E-1,4.4135746E-2,-6.951834E-2,-4.212565E-1,2.326084E-1,-2.2290301E-1,-2.9127342E-1,-2.461576E-2,-3.911389E-1,-8.19124E-2,2.3244673E-2,-2.6730934E-1,6.893598E-2,2.9298243E-1,1.2393353E-1,-4.0440474E-2,-3.0226392E-1,-5.421481E-2,3.5841915E-1,1.0774559E-1,3.5011414E-2,-1.419263E-1],"split_indices":[0,6,49,11,37,46,11,46,34,1,11,1,3,0,13,49,0,9,0,11,40,41,37,0,0,0,0,0,0,36,0,46,34,9,46,0,49,0,47,47,44,1,0,4,13,0,46,46,4,37,0,0,0,34,0,0,0,29,38,36,28,0,0,11,38,0,0,0,0,0,0,0,0,0,11,38,3,0,0,0,0,0,0,0,0,0,0,0,0,0,0,0,0],"split_type":[0,0,0,0,0,0,0,0,0,0,0,0,0,0,0,0,0,0,0,0,0,0,0,0,0,0,0,0,0,0,0,0,0,0,0,0,0,0,0,0,0,0,0,0,0,0,0,0,0,0,0,0,0,0,0,0,0,0,0,0,0,0,0,0,0,0,0,0,0,0,0,0,0,0,0,0,0,0,0,0,0,0,0,0,0,0,0,0,0,0,0,0,0],"sum_hessian":[5.73E2,4.58E2,1.15E2,2.4E2,2.18E2,3.4E1,8.1E1,1.52E2,8.8E1,8.4E1,1.34E2,2E1,1.4E1,5E0,7.6E1,1.44E2,8E0,7.9E1,9E0,6.1E1,2.3E1,5.2E1,8.2E1,1.1E1,9E0,5E0,9E0,7.1E1,5E0,1.38E2,6E0,4.9E1,3E1,4.3E1,1.8E1,8E0,1.5E1,6E0,4.6E1,1E1,7.2E1,1.33E2,5E0,1.2E1,3.7E1,1.5E1,1.5E1,3.2E1,1.1E1,1.1E1,7E0,9E0,6E0,4E1,6E0,5E0,5E0,6.2E1,1E1,9.7E1,3.6E1,7E0,5E0,2.4E1,1.3E1,5E0,1E1,6E0,2.6E1,5E0,6E0,5E0,6E0,6E0,3.4E1,5.2E1,1E1,5E0,5E0,9.1E1,6E0,1E1,2.6E1,5E0,1.9E1,6E0,7E0,2.9E1,5E0,2.1E1,3.1E1,5E0,5E0],"tree_param":{"num_deleted":"0","num_feature":"51","num_nodes":"93","size_leaf_vector":"1"}},{"base_weights":[1.4369348E-1,-3.8330553E0,8.138619E0,-7.9191914E0,4.084438E-1,1.0969957E1,1.0130962E0,1.7437118E0,-9.954675E0,2.058929E0,-1.1355119E1,1.2480947E1,-1.8260174E0,-4.7900534E0,7.8322754E0,-2.0698702E0,3.2285243E-1,-4.3196025E0,-1.2404339E1,-3.064411E0,5.324509E0,-7.710558E-2,-3.2782334E-1,1.360491E1,3.1597111E0,1.1042816E-1,-1.6367185E-1,1.331461E-1,-7.6532955E0,3.2232692E0,3.2582074E-1,-2.2563228E-1,2.687123E0,-8.841739E0,3.901667E0,1.3691978E-1,-1.3472688E1,-6.3105607E0,1.7068565E0,1.0538333E1,3.3387468E0,5.8838975E-2,1.4497281E1,-7.589828E-2,2.469795E-1,-9.880356E0,4.3327395E-2,1.8141924E-1,-5.2969217E-2,6.9178963E0,-1.03935406E-1,-1.1170744E1,1.4405018E-3,2.791934E-1,-3.7865348E0,-1.4019441E1,-1.04858704E-1,-2.776186E-1,-1.1658915E0,-4.7322993E0,6.0289907E0,3.3032647E-1,1.6560602E-3,9.12036E0,1.3903743E0,3.9212915E-1,5.2864883E-2,-2.057675E0,-3.7199795E-1,2.5313076E-1,6.4925123E-3,-3.3647865E-1,-1.8989168E-2,-2.1035375E-1,6.167622E-2,-1.5060982E1,-6.505487E0,1.05358586E-1,-3.4091825E0,2.9055078E-3,-1.8228774E-1,-1.8834954E-2,8.836485E0,4.7950312E-2,2.9418734E-1,-4.4265876E0,3.6407437E0,1.7506181E-3,-8.3276995E-2,-4.0074566E-1,-1.03106156E-1,-2.261752E-1,-4.465081E-2,-1.4502545E-1,2.7944813E-2,2.8401786E-1,5.200637E-2,2.137564E-2,-1.6166037E-1,-6.166677E-2,1.5139629E-1],"categories":[],"categories_nodes":[],"categories_segments":[],"categories_sizes":[],"default_left":[0,0,0,0,0,0,0,0,0,0,0,0,0,0,0,0,0,0,0,0,0,0,0,0,0,0,0,0,0,0,0,0,0,0,0,0,0,0,0,0,0,0,0,0,0,0,0,0,0,0,0,0,0,0,0,0,0,0,0,0,0,0,0,0,0,0,0,0,0,0,0,0,0,0,0,0,0,0,0,0,0,0,0,0,0,0,0,0,0,0,0,0,0,0,0,0,0,0,0,0,0],"id":8,"left_children":[1,3,5,7,9,11,13,15,17,19,21,23,25,27,29,31,-1,33,35,37,39,-1,-1,41,43,-1,-1,-1,45,47,-1,-1,49,51,53,-1,55,57,59,61,63,-1,65,-1,-1,67,-1,-1,-1,69,-1,71,-1,-1,73,75,-1,-1,77,79,81,-1,-1,83,85,-1,-1,87,-1,-1,-1,-1,-1,-1,-1,89,91,-1,93,-1,-1,-1,95,-1,-1,97,99,-1,-1,-1,-1,-1,-1,-1,-1,-1,-1,-1,-1,-1,-1],"loss_changes":[1.8659207E4,6.813574E3,3.870623E3,4.023579E3,3.9337026E3,2.8057441E3,2.5992036E3,1.7304891E3,2.0154043E3,3.0425088E3,8.057373E1,1.0860762E3,6.557165E2,1.2196951E3,4.4811353E2,1.1634514E3,0E0,2.3279426E3,2.4939805E3,1.1704219E3,9.557395E2,0E0,0E0,9.379004E2,9.205151E2,0E0,0E0,0E0,7.091699E2,5.1340466E2,0E0,0E0,7.9058905E2,8.16978E2,1.4769045E3,0E0,2.6328125E2,9.3233923E2,1.058808E3,6.441948E2,9.1022E2,0E0,6.829336E2,0E0,0E0,7.238501E2,0E0,0E0,0E0,2.8731604E2,0E0,5.408074E2,0E0,0E0,5.0107434E2,2.8431055E2,0E0,0E0,3.7342535E2,1.8744714E2,4.5320477E2,0E0,0E0,2.3154553E2,1.00791846E3,0E0,0E0,4.000812E1,0E0,0E0,0E0,0E0,0E0,0E0,0E0,9.431641E1,1.4345233E2,0E0,2.3987521E2,0E0,0E0,0E0,1.168031E2,0E0,0E0,2.3967609E2,7.919037E2,0E0,0E0,0E0,0E0,0E0,0E0,0E0,0E0,0E0,0E0,0E0,0E0,0E0,0E0],"parents":[2147483647,0,0,1,1,2,2,3,3,4,4,5,5,6,6,7,7,8,8,9,9,10,10,11,11,12,12,13,13,14,14,15,15,17,17,18,18,19,19,20,20,23,23,24,24,28,28,29,29,32,32,33,33,34,34,36,36,37,37,38,38,39,39,40,40,42,42,45,45,49,49,51,51,54,54,55,55,58,58,59,59,60,60,63,63,64,64,67,67,75,75,76,76,78,78,82,82,85,85,86,86],"right_children":[2,4,6,8,10,12,14,16,18,20,22,24,26,28,30,32,-1,34,36,38,40,-1,-1,42,44,-1,-1,-1,46,48,-1,-1,50,52,54,-1,56,58,60,62,64,-1,66,-1,-1,68,-1,-1,-1,70,-1,72,-1,-1,74,76,-1,-1,78,80,82,-1,-1,84,86,-1,-1,88,-1,-1,-1,-1,-1,-1,-1,90,92,-1,94,-1,-1,-1,96,-1,-1,98,100,-1,-1,-1,-1,-1,-1,-1,-1,-1,-1,-1,-1,-1,-1],"split_conditions":[2.8363216E-1,-1.4729564E-1,2.7453032E-1,-5.5469495E-1,3.259172E0,1.2238727E0,7.4282074E-1,-1.9843782E-1,1.08218305E-2,1.5114897E-2,-2.1728192E-1,9.279717E-1,-3.7250924E-1,5.884074E-1,2.1887581E-1,-6.2515587E-1,3.2285243E-1,8.7677693E-1,-1.5505672E0,2.9703442E-2,1.64353E-1,-7.710558E-2,-3.2782334E-1,-6.6961026E-1,2.5442275E-1,1.1042816E-1,-1.6367185E-1,1.331461E-1,9.252753E-1,9.6937644E-1,3.2582074E-1,-2.2563228E-1,-7.6655835E-1,9.2377496E-1,-4.4283873E-1,1.3691978E-1,2.0345056E0,-3.700613E-1,-1.3303739E0,1.11732155E-1,-3.140677E-1,5.8838975E-2,5.756793E-1,-7.589828E-2,2.469795E-1,-6.2959395E-2,4.3327395E-2,1.8141924E-1,-5.2969217E-2,-4.9502352E-1,-1.03935406E-1,7.325977E-1,1.4405018E-3,2.791934E-1,1.4223851E-1,-3.792202E-1,-1.04858704E-1,-2.776186E-1,-3.3890113E-1,-8.746473E-2,-4.1471547E-1,3.3032647E-1,1.6560602E-3,8.0214554E-1,-2.4546006E-1,3.9212915E-1,5.2864883E-2,-4.835681E-1,-3.7199795E-1,2.5313076E-1,6.4925123E-3,-3.3647865E-1,-1.8989168E-2,-2.1035375E-1,6.167622E-2,2.8935144E0,-2.542714E-1,1.05358586E-1,9.992814E-1,2.9055078E-3,-1.8228774E-1,-1.8834954E-2,-1.2085512E-2,4.7950312E-2,2.9418734E-1,-8.722726E-1,-6.9758105E-1,1.7506181E-3,-8.3276995E-2,-4.0074566E-1,-1.03106156E-1,-2.261752E-1,-4.465081E-2,-1.4502545E-1,2.7944813E-2,2.8401786E-1,5.200637E-2,2.137564E-2,-1.6166037E-1,-6.166677E-2,1.5139629E-1],"split_indices":[2,11,40,37,44,33,0,45,15,15,33,3,12,2,13,33,0,6,16,12,11,0,0,41,8,0,0,0,13,2,0,0,38,16,37,0,40,21,15,16,12,0,12,0,0,16,0,0,0,0,0,4,0,0,4,11,0,0,21,21,3,0,0,11,4,0,0,41,0,0,0,0,0,0,0,21,4,0,11,0,0,0,38,0,0,16,16,0,0,0,0,0,0,0,0,0,0,0,0,0,0],"split_type":[0,0,0,0,0,0,0,0,0,0,0,0,0,0,0,0,0,0,0,0,0,0,0,0,0,0,0,0,0,0,0,0,0,0,0,0,0,0,0,0,0,0,0,0,0,0,0,0,0,0,0,0,0,0,0,0,0,0,0,0,0,0,0,0,0,0,0,0,0,0,0,0,0,0,0,0,0,0,0,0,0,0,0,0,0,0,0,0,0,0,0,0,0,0,0,0,0,0,0,0,0],"sum_hessian":[5.77E2,3.87E2,1.9E2,1.95E2,1.92E2,1.34E2,5.6E1,3.4E1,1.61E2,1.72E2,2E1,1.2E2,1.4E1,3.1E1,2.5E1,2.8E1,6E0,5.3E1,1.08E2,6.7E1,1.05E2,5E0,1.5E1,1.05E2,1.5E1,6E0,8E0,6E0,2.5E1,1.7E1,8E0,1E1,1.8E1,3.4E1,1.9E1,5E0,1.03E2,3.9E1,2.8E1,2.3E1,8.2E1,9E0,9.6E1,9E0,6E0,2E1,5E0,9E0,8E0,1.1E1,7E0,2.6E1,8E0,9E0,1E1,9.5E1,8E0,1.8E1,2.1E1,1.1E1,1.7E1,1.8E1,5E0,1.6E1,6.6E1,9E1,6E0,1E1,1E1,6E0,5E0,2.1E1,5E0,5E0,5E0,7.9E1,1.6E1,5E0,1.6E1,5E0,6E0,6E0,1.1E1,6E0,1E1,1.7E1,4.9E1,5E0,5E0,7.4E1,5E0,8E0,8E0,1E1,6E0,6E0,5E0,5E0,1.2E1,1.3E1,3.6E1],"tree_param":{"num_deleted":"0","num_feature":"51","num_nodes":"101","size_leaf_vector":"1"}},{"base_weights":[-3.0136812E-1,-3.3174212E0,9.673793E0,-7.2046795E0,9.021982E-1,2.2993233E0,1.300006E1,-1.1153755E1,-9.9052024E-1,1.0237592E1,-2.3777046E0,-2.948786E0,7.9578457E0,3.5908597E-3,1.3862669E1,-1.2310503E1,1.0426232E-1,-2.795909E-1,8.608987E-1,1.2965271E1,1.0615699E0,-6.766372E0,2.7992222E0,9.8204955E-2,-6.4528008E0,1.0746105E1,-1.0534437E-2,6.1693728E-2,1.4551335E1,-1.3183592E1,5.580348E-2,4.890104E0,-3.428599E0,3.9596626E-1,5.7026944E0,1.4836755E-1,-8.4058225E-2,-1.6918505E0,-1.0430448E1,7.7719297E0,-2.2481532E0,-4.605912E-2,-1.9894397E-1,3.3648133E-1,5.5688478E-2,7.2192783E0,1.5779504E1,-1.3730087E1,3.12034E-3,-3.6321368E0,9.473326E0,1.5515795E-1,-5.3678045E0,2.4369659E-2,2.4500716E-1,3.6050808E0,-5.2570643E0,-2.0821894E-2,-1.1338209E1,6.818535E-2,8.759662E0,1.8292512E-1,-4.661352E0,-0E0,2.6229048E-1,1.688702E1,1.4517914E-1,-1.651773E1,-1.0884448E1,-1.6639876E-1,6.0175993E-2,2.8333685E-1,4.155352E-2,1.7200363E0,-9.995527E0,7.1238494E0,-9.736931E-2,-2.7010208E-1,1.4337516E0,-7.712887E-2,-3.327551E-1,2.507216E-1,4.3913476E-2,-8.263566E0,1.075772E0,1.2595986E-1,1.7816721E1,-1.7898372E-1,-4.6368763E-1,-4.716925E-2,-3.257323E-1,-9.367652E-2,1.227356E-1,-4.238959E-2,-3.1484306E-1,2.5074863E-1,1.7648902E-2,-5.1193673E-2,1.2623303E-1,-2.509548E-1,-3.459568E-2,9.636063E-2,-8.054468E-2,4.84114E-1,1.2086614E-1],"categories":[],"categories_nodes":[],"categories_segments":[],"categories_sizes":[],"default_left":[0,0,0,0,0,0,0,0,0,0,0,0,0,0,0,0,0,0,0,0,0,0,0,0,0,0,0,0,0,0,0,0,0,0,0,0,0,0,0,0,0,0,0,0,0,0,0,0,0,0,0,0,0,0,0,0,0,0,0,0,0,0,0,0,0,0,0,0,0,0,0,0,0,0,0,0,0,0,0,0,0,0,0,0,0,0,0,0,0,0,0,0,0,0,0,0,0,0,0,0,0,0,0,0,0],"id":9,"left_children":[1,3,5,7,9,11,13,15,17,19,21,23,25,-1,27,29,-1,-1,31,33,35,37,39,-1,41,43,-1,-1,45,47,-1,49,51,-1,53,-1,-1,55,57,59,61,-1,-1,-1,-1,63,65,67,-1,69,71,-1,73,-1,-1,75,77,-1,79,-1,81,-1,83,-1,-1,85,-1,87,89,-1,-1,-1,-1,91,93,95,-1,-1,97,-1,-1,-1,-1,99,101,-1,103,-1,-1,-1,-1,-1,-1,-1,-1,-1,-1,-1,-1,-1,-1,-1,-1,-1,-1],"loss_changes":[1.7873582E4,7.514797E3,3.226459E3,5.7770957E3,6.9516475E3,1.5726588E3,1.0240801E3,2.7971309E3,1.8341399E3,1.3986396E3,3.9345322E3,8.0733563E2,6.098943E2,0E0,5.1281055E2,1.8649902E3,0E0,0E0,1.5865244E3,3.2346582E2,4.76225E2,1.6334233E3,2.121484E3,0E0,4.803839E1,2.2175244E2,0E0,0E0,1.6034375E2,9.5412695E2,0E0,2.0074374E3,9.8100714E2,0E0,2.8991962E2,0E0,0E0,9.435325E2,4.099248E2,9.1385254E1,1.1506113E3,0E0,0E0,0E0,0E0,4.474198E2,2.5925195E2,7.715625E1,0E0,4.1020612E2,2.7916382E2,0E0,1.4003722E3,0E0,0E0,6.781455E2,1.0853787E3,0E0,4.1537695E2,0E0,1.3024756E2,0E0,8.3259686E2,0E0,0E0,1.9263086E2,0E0,9.249609E1,1.059291E3,0E0,0E0,0E0,0E0,4.0863025E2,3.4819922E2,2.2554596E2,0E0,0E0,2.4924931E2,0E0,0E0,0E0,0E0,1.6863892E2,2.6848038E2,0E0,1.6376074E2,0E0,0E0,0E0,0E0,0E0,0E0,0E0,0E0,0E0,0E0,0E0,0E0,0E0,0E0,0E0,0E0,0E0,0E0],"parents":[2147483647,0,0,1,1,2,2,3,3,4,4,5,5,6,6,7,7,8,8,9,9,10,10,11,11,12,12,14,14,15,15,18,18,19,19,20,20,21,21,22,22,24,24,25,25,28,28,29,29,31,31,32,32,34,34,37,37,38,38,39,39,40,40,45,45,46,46,47,47,49,49,50,50,52,52,55,55,56,56,58,58,60,60,62,62,65,65,67,67,68,68,73,73,74,74,75,75,78,78,83,83,84,84,86,86],"right_children":[2,4,6,8,10,12,14,16,18,20,22,24,26,-1,28,30,-1,-1,32,34,36,38,40,-1,42,44,-1,-1,46,48,-1,50,52,-1,54,-1,-1,56,58,60,62,-1,-1,-1,-1,64,66,68,-1,70,72,-1,74,-1,-1,76,78,-1,80,-1,82,-1,84,-1,-1,86,-1,88,90,-1,-1,-1,-1,92,94,96,-1,-1,98,-1,-1,-1,-1,100,102,-1,104,-1,-1,-1,-1,-1,-1,-1,-1,-1,-1,-1,-1,-1,-1,-1,-1,-1,-1],"split_conditions":[5.880902E-1,8.7677693E-1,9.369377E-2,-4.8727695E-2,-5.2440053E-1,1.8913215E0,-5.473655E-1,1.7695266E0,-9.1512126E-1,3.781435E-1,-2.1473056E-1,-2.359093E-1,7.174786E-2,3.5908597E-3,-7.6655835E-1,2.6046314E0,1.0426232E-1,-2.795909E-1,-3.4867758E-1,4.7416675E-1,-3.37075E-1,1.08218305E-2,-1.5331642E-1,9.8204955E-2,1.1141447E0,-3.780441E-1,-1.0534437E-2,6.1693728E-2,7.2555625E-1,1.8016094E0,5.580348E-2,-9.005858E-1,-1.01635E0,3.9596626E-1,-6.1041504E-1,1.4836755E-1,-8.4058225E-2,-3.0534878E-1,-1.8648424E0,-3.8388062E-1,-6.832945E-1,-4.605912E-2,-1.9894397E-1,3.3648133E-1,5.5688478E-2,-6.656831E-2,3.546503E-2,-4.3602797E-1,3.12034E-3,-4.9502352E-1,1.0703083E0,1.5515795E-1,-1.7825834E-1,2.4369659E-2,2.4500716E-1,4.3831775E-1,5.6518245E-1,-2.0821894E-2,-4.847848E-1,6.818535E-2,4.6259353E-1,1.8292512E-1,2.3247696E-2,-0E0,2.6229048E-1,-4.5712286E-1,1.4517914E-1,-9.360599E-1,-8.35308E-1,-1.6639876E-1,6.0175993E-2,2.8333685E-1,4.155352E-2,3.3122188E-1,-5.8521545E-1,1.5986118E-1,-9.736931E-2,-2.7010208E-1,7.1662337E-1,-7.712887E-2,-3.327551E-1,2.507216E-1,4.3913476E-2,-4.2121887E-1,5.828051E-1,1.2595986E-1,6.7761916E-1,-1.7898372E-1,-4.6368763E-1,-4.716925E-2,-3.257323E-1,-9.367652E-2,1.227356E-1,-4.238959E-2,-3.1484306E-1,2.5074863E-1,1.7648902E-2,-5.1193673E-2,1.2623303E-1,-2.509548E-1,-3.459568E-2,9.636063E-2,-8.054468E-2,4.84114E-1,1.2086614E-1],"split_indices":[0,6,49,11,37,2,11,46,4,24,46,42,4,0,38,21,0,0,5,9,18,15,18,0,2,21,0,0,2,49,0,46,38,0,41,0,0,37,39,21,38,0,0,0,0,42,15,3,0,0,11,0,39,0,0,5,4,0,37,0,12,0,15,0,0,50,0,38,9,0,0,0,0,3,3,4,0,0,11,0,0,0,0,33,4,0,42,0,0,0,0,0,0,0,0,0,0,0,0,0,0,0,0,0,0],"split_type":[0,0,0,0,0,0,0,0,0,0,0,0,0,0,0,0,0,0,0,0,0,0,0,0,0,0,0,0,0,0,0,0,0,0,0,0,0,0,0,0,0,0,0,0,0,0,0,0,0,0,0,0,0,0,0,0,0,0,0,0,0,0,0,0,0,0,0,0,0,0,0,0,0,0,0,0,0,0,0,0,0,0,0,0,0,0,0,0,0,0,0,0,0,0,0,0,0,0,0,0,0,0,0,0,0],"sum_hessian":[5.84E2,4.51E2,1.33E2,2.33E2,2.18E2,4.4E1,8.9E1,1.4E2,9.3E1,5.4E1,1.64E2,2.4E1,2E1,6E0,8.3E1,1.31E2,9E0,1.1E1,8.2E1,4E1,1.4E1,8.8E1,7.6E1,8E0,1.6E1,1.4E1,6E0,6E0,7.7E1,1.24E2,7E0,4.2E1,4E1,2.6E1,1.4E1,6E0,8E0,4E1,4.8E1,3.7E1,3.9E1,6E0,1E1,9E0,5E0,1.6E1,6.1E1,1.19E2,5E0,1.5E1,2.7E1,5E0,3.5E1,9E0,5E0,1.6E1,2.4E1,5E0,4.3E1,9E0,2.8E1,6E0,3.3E1,6E0,1E1,5.2E1,9E0,4.8E1,7.1E1,1E1,5E0,2.1E1,6E0,1.5E1,2E1,1.1E1,5E0,1.2E1,1.2E1,9E0,3.4E1,2.3E1,5E0,1.9E1,1.4E1,6E0,4.6E1,1E1,3.8E1,1.3E1,5.8E1,5E0,1E1,6E0,1.4E1,6E0,5E0,7E0,5E0,1.4E1,5E0,9E0,5E0,4.1E1,5E0],"tree_param":{"num_deleted":"0","num_feature":"51","num_nodes":"105","size_leaf_vector":"1"}},{"base_weights":[5.072245E-1,-2.282259E0,1.0458374E1,-5.9570236E0,1.4679184E0,1.1525311E1,-1.7020057E-1,-1.1470177E1,-3.0178983E0,9.127532E0,-1.4080192E0,1.312749E1,8.731052E-1,-3.8153389E0,-1.3471202E1,7.923565E-2,-6.6199074E0,1.1261697E1,1.8539152E0,2.618835E-1,-2.3230271E0,3.0446882E0,1.443536E1,-1.8415791E0,1.3250089E-1,1.3734943E-1,-7.6444054E0,-4.105355E-1,-6.236485E0,-8.648441E0,3.2298098E0,3.9815438E-1,-8.844603E0,1.2465141E1,3.3218097E-2,-9.650472E-2,5.3738785E0,-7.800986E0,1.6491313E-1,-9.792949E-2,1.9920231E-1,4.1082948E-1,4.3227363E0,4.227859E-2,-1.04058035E-1,-2.9049784E-1,2.9344054E-2,-3.9502554E-2,-2.0899636E-1,3.9471686E-2,-1.1467528E1,-3.950726E0,5.4751773E0,-1.2590395E-1,1.4398028E-1,-1.0919744E1,-2.9515426E0,6.011195E-2,1.3455713E1,2.015862E-2,1.8696605E-1,-2.02467E0,-2.9117706E-1,5.329964E0,-4.242885E0,-3.2950126E-2,2.3382008E-1,-3.5109374E-1,-5.9721395E-2,-2.328964E-1,3.5602853E-2,-7.529843E-1,8.014928E0,-1.2741642E1,-2.9141554E-3,-1.6865727E-1,8.401806E-1,1.0922482E-1,3.7435746E-1,9.450368E-2,-4.2735505E0,-1.0242087E0,8.335489E0,-6.5027905E0,5.8817115E0,1.7198054E-1,-1.3383318E-1,2.6237762E-1,2.3217654E-2,-3.661539E-1,-1.256478E-1,1.5022816E-1,-1.1599082E-1,-1.1958871E-2,-1.9358853E-1,-1.584974E-1,1.8842742E-1,3.1292695E-1,1.0258605E-1,-1.874141E-1,1.6833967E-2,-9.3369365E-2,3.2342622E-1],"categories":[],"categories_nodes":[],"categories_segments":[],"categories_sizes":[],"default_left":[0,0,0,0,0,0,0,0,0,0,0,0,0,0,0,0,0,0,0,0,0,0,0,0,0,0,0,0,0,0,0,0,0,0,0,0,0,0,0,0,0,0,0,0,0,0,0,0,0,0,0,0,0,0,0,0,0,0,0,0,0,0,0,0,0,0,0,0,0,0,0,0,0,0,0,0,0,0,0,0,0,0,0,0,0,0,0,0,0,0,0,0,0,0,0,0,0,0,0,0,0,0,0],"id":10,"left_children":[1,3,5,7,9,11,-1,13,15,17,19,21,23,25,27,29,31,33,35,-1,37,39,41,43,-1,-1,45,-1,47,49,51,53,55,57,-1,-1,59,61,63,-1,-1,-1,65,-1,-1,-1,-1,-1,-1,-1,67,69,71,-1,-1,73,75,-1,77,-1,-1,79,-1,81,83,-1,-1,-1,-1,-1,-1,85,87,89,-1,-1,91,-1,-1,-1,93,95,97,99,101,-1,-1,-1,-1,-1,-1,-1,-1,-1,-1,-1,-1,-1,-1,-1,-1,-1,-1],"loss_changes":[1.6859996E4,6.591251E3,2.7958857E3,3.7241094E3,5.331953E3,2.1012207E3,0E0,9.9034766E2,1.8355913E3,9.1233154E2,1.9905581E3,1.2217031E3,3.0210428E2,1.0393927E3,5.948994E2,2.6905435E3,1.2083706E3,5.1194287E2,5.12203E2,0E0,2.313606E3,7.504297E2,1.0635996E3,1.6275476E2,0E0,0E0,6.672699E2,0E0,1.4145203E2,8.3701294E2,1.2678928E3,7.5999384E2,5.4065625E2,2.7688037E2,0E0,0E0,9.483844E1,9.385166E2,2.8660205E3,0E0,0E0,0E0,5.627577E2,0E0,0E0,0E0,0E0,0E0,0E0,0E0,2.4081274E2,6.0381854E2,9.350923E2,0E0,0E0,7.9115137E2,3.2799152E2,0E0,5.5236816E1,0E0,0E0,4.091311E2,0E0,1.1533568E3,1.7441779E3,0E0,0E0,0E0,0E0,0E0,0E0,8.5595264E2,5.705752E2,3.998047E1,0E0,0E0,5.2571643E2,0E0,0E0,0E0,2.3467645E2,1.194843E3,4.1025342E2,3.3755005E2,1.1699993E3,0E0,0E0,0E0,0E0,0E0,0E0,0E0,0E0,0E0,0E0,0E0,0E0,0E0,0E0,0E0,0E0,0E0,0E0],"parents":[2147483647,0,0,1,1,2,2,3,3,4,4,5,5,7,7,8,8,9,9,10,10,11,11,12,12,13,13,14,14,15,15,16,16,17,17,18,18,20,20,21,21,22,22,23,23,26,26,28,28,29,29,30,30,31,31,32,32,33,33,36,36,37,37,38,38,42,42,50,50,51,51,52,52,55,55,56,56,58,58,61,61,63,63,64,64,71,71,72,72,73,73,76,76,80,80,81,81,82,82,83,83,84,84],"right_children":[2,4,6,8,10,12,-1,14,16,18,20,22,24,26,28,30,32,34,36,-1,38,40,42,44,-1,-1,46,-1,48,50,52,54,56,58,-1,-1,60,62,64,-1,-1,-1,66,-1,-1,-1,-1,-1,-1,-1,68,70,72,-1,-1,74,76,-1,78,-1,-1,80,-1,82,84,-1,-1,-1,-1,-1,-1,86,88,90,-1,-1,92,-1,-1,-1,94,96,98,100,102,-1,-1,-1,-1,-1,-1,-1,-1,-1,-1,-1,-1,-1,-1,-1,-1,-1,-1],"split_conditions":[5.880902E-1,8.7677693E-1,1.1422979E0,-4.4210178E-1,-5.267309E-1,5.63805E-1,-1.7020057E-1,-1.0810666E0,-5.757383E-1,9.0477943E-1,-1.0581678E0,-6.9919676E-1,4.0423714E-2,1.730849E-1,-2.4788935E-1,-1.0114653E0,-6.286298E-1,9.279717E-1,6.5975875E-2,2.618835E-1,-6.8669176E-1,2.5442275E-1,9.279717E-1,-4.5734045E-1,1.3250089E-1,1.3734943E-1,2.6242397E0,-4.105355E-1,-4.364765E-1,-7.6655835E-1,-6.3480127E-1,-1.4763018E-1,4.506351E-1,-7.084972E-1,3.3218097E-2,-9.650472E-2,-3.8985655E-1,2.0671618E-1,-1.932426E-1,-9.792949E-2,1.9920231E-1,4.1082948E-1,2.077114E-1,4.227859E-2,-1.04058035E-1,-2.9049784E-1,2.9344054E-2,-3.9502554E-2,-2.0899636E-1,3.9471686E-2,2.326084E-1,6.637564E-3,-8.5690004E-1,-1.2590395E-1,1.4398028E-1,8.513838E-1,1.1900764E-2,6.011195E-2,-6.3523966E-1,2.015862E-2,1.8696605E-1,-4.946947E-1,-2.9117706E-1,-1.7183302E-2,3.0632498E-2,-3.2950126E-2,2.3382008E-1,-3.5109374E-1,-5.9721395E-2,-2.328964E-1,3.5602853E-2,-6.948527E-1,1.0411398E0,1.7748384E-1,-2.9141554E-3,-1.6865727E-1,7.7665436E-1,1.0922482E-1,3.7435746E-1,9.450368E-2,-2.7261382E-1,-3.7743884E-1,1.2572133E-3,9.0733725E-1,3.2628858E-1,1.7198054E-1,-1.3383318E-1,2.6237762E-1,2.3217654E-2,-3.661539E-1,-1.256478E-1,1.5022816E-1,-1.1599082E-1,-1.1958871E-2,-1.9358853E-1,-1.584974E-1,1.8842742E-1,3.1292695E-1,1.0258605E-1,-1.874141E-1,1.6833967E-2,-9.3369365E-2,3.2342622E-1],"split_indices":[0,6,33,12,37,40,0,8,9,9,40,40,18,21,49,3,40,3,5,0,23,8,3,3,0,0,33,0,38,38,16,8,4,37,0,0,21,9,18,0,0,0,8,0,0,0,0,0,0,0,38,15,8,0,0,36,15,0,23,0,0,15,0,38,15,0,0,0,0,0,0,23,13,4,0,0,4,0,0,0,13,23,4,9,18,0,0,0,0,0,0,0,0,0,0,0,0,0,0,0,0,0,0],"split_type":[0,0,0,0,0,0,0,0,0,0,0,0,0,0,0,0,0,0,0,0,0,0,0,0,0,0,0,0,0,0,0,0,0,0,0,0,0,0,0,0,0,0,0,0,0,0,0,0,0,0,0,0,0,0,0,0,0,0,0,0,0,0,0,0,0,0,0,0,0,0,0,0,0,0,0,0,0,0,0,0,0,0,0,0,0,0,0,0,0,0,0,0,0,0,0,0,0,0,0,0,0,0,0],"sum_hessian":[5.98E2,4.7E2,1.28E2,2.36E2,2.34E2,1.22E2,6E0,7.7E1,1.59E2,6.1E1,1.73E2,1.05E2,1.7E1,1.9E1,5.8E1,8.8E1,7.1E1,4.5E1,1.6E1,9E0,1.64E2,1.4E1,9.1E1,1.2E1,5E0,5E0,1.4E1,3.9E1,1.9E1,2.1E1,6.7E1,1.8E1,5.3E1,3.9E1,6E0,6E0,1E1,4.8E1,1.16E2,6E0,8E0,7.7E1,1.4E1,5E0,7E0,9E0,5E0,8E0,1.1E1,5E0,1.6E1,1.5E1,5.2E1,9E0,9E0,3.6E1,1.7E1,5E0,3.4E1,5E0,5E0,2.1E1,2.7E1,5.3E1,6.3E1,8E0,6E0,1.1E1,5E0,6E0,9E0,1.6E1,3.6E1,3E1,6E0,7E0,1E1,6E0,2.8E1,5E0,1.6E1,1.8E1,3.5E1,5.3E1,1E1,5E0,1.1E1,2.6E1,1E1,2.2E1,8E0,5E0,5E0,1E1,6E0,1.2E1,6E0,1.4E1,2.1E1,4.8E1,5E0,5E0,5E0],"tree_param":{"num_deleted":"0","num_feature":"51","num_nodes":"103","size_leaf_vector":"1"}},{"base_weights":[-1.6801096E-1,-3.1140776E0,9.095038E0,-8.252919E0,-5.8295812E-2,4.1753647E-1,6.1640286E0,-1.1899935E1,-3.0098658E0,-2.96797E0,2.9737778E0,2.4887345E0,1.0586006E1,-1.2810293E1,2.1148184E-2,2.875023E0,-8.115107E0,-7.7658715E0,2.608577E-1,3.4903347E-1,1.5527786E0,-1.8746549E0,6.764796E0,3.5213098E-2,1.2018223E1,-1.4730505E1,-5.316095E0,6.7754993E0,-4.5691833E0,4.576175E-2,-9.750942E0,-1.0685141E1,1.1543059E0,-3.5750618E0,4.6792235E0,-5.1636753E0,2.951353E0,-5.314819E0,1.3939263E-1,-3.4692886E0,1.2445612E1,5.0600467E0,3.4856156E-1,-6.840774E-2,-1.5679676E1,3.8900036E-2,-2.2761007E-1,8.928956E0,-9.056888E-3,4.500045E-2,-2.1439485E-1,-6.992932E-2,-1.0971187E1,-5.7013012E-2,-1.1945618E1,1.3951969E-1,-9.086587E-2,1.4333797E-1,-5.8735604E0,3.1681046E-1,-1.5824559E0,-7.528419E0,2.5592064E-2,4.9334373E0,-4.036606E0,-3.134627E-2,-1.8101877E-1,-1.4619891E-1,1.5527384E-2,8.5615784E-2,3.629718E-1,1.7584441E-2,1.773506E-1,-4.2547128E-1,-1.4324786E-1,3.5134457E-2,2.8024E-1,-7.985286E-2,-3.0895248E-1,-8.7826885E-2,-3.4418312E-1,-7.559757E0,4.4498313E-2,1.6440359E-1,-5.057314E0,-6.3832335E-2,-2.3250043E-1,8.171676E0,2.1429652E-1,-2.4728173E-1,1.3392303E0,-2.4108306E-1,4.6907034E-2,1.3648494E-2,-1.7558978E-1,2.3571138E-1,-7.846694E-3,-1.1956918E-1,2.6381585E-1,1.8140781E-1,-1.3977179E-1],"categories":[],"categories_nodes":[],"categories_segments":[],"categories_sizes":[],"default_left":[0,0,0,0,0,0,0,0,0,0,0,0,0,0,0,0,0,0,0,0,0,0,0,0,0,0,0,0,0,0,0,0,0,0,0,0,0,0,0,0,0,0,0,0,0,0,0,0,0,0,0,0,0,0,0,0,0,0,0,0,0,0,0,0,0,0,0,0,0,0,0,0,0,0,0,0,0,0,0,0,0,0,0,0,0,0,0,0,0,0,0,0,0,0,0,0,0,0,0,0,0],"id":11,"left_children":[1,3,5,7,9,-1,11,13,15,17,19,21,23,25,-1,27,29,31,33,-1,35,37,39,-1,41,43,45,47,49,-1,51,53,55,57,59,61,63,65,-1,67,69,71,-1,-1,73,-1,-1,75,-1,-1,-1,-1,77,-1,79,-1,-1,-1,81,-1,83,85,-1,87,89,-1,-1,-1,-1,-1,-1,-1,-1,-1,-1,-1,-1,-1,-1,-1,-1,91,-1,-1,93,-1,-1,95,97,-1,99,-1,-1,-1,-1,-1,-1,-1,-1,-1,-1],"loss_changes":[1.5826393E4,6.901036E3,2.3892832E3,2.9485469E3,2.5222458E3,0E0,1.5997239E3,1.1585234E3,2.3402239E3,2.27558E3,1.9810355E3,1.2774984E3,5.3093115E2,8.803135E2,0E0,1.2562556E3,7.5244385E2,1.6018462E3,1.641753E3,0E0,1.2852501E3,1.0404121E3,2.1926035E3,0E0,5.8921387E1,5.627715E2,6.876909E2,4.3425574E2,4.5033194E2,0E0,1.5379248E2,3.4133447E2,4.704527E2,1.2502739E3,2.2351985E3,3.893603E2,1.6218674E3,1.3957428E2,0E0,1.6186006E2,9.401367E1,9.018106E1,0E0,0E0,2.596289E1,0E0,0E0,2.2293457E2,0E0,0E0,0E0,0E0,3.210205E1,0E0,2.1043652E2,0E0,0E0,0E0,6.307772E2,0E0,9.572142E2,1.622284E1,0E0,1.330123E3,8.6956506E2,0E0,0E0,0E0,0E0,0E0,0E0,0E0,0E0,0E0,0E0,0E0,0E0,0E0,0E0,0E0,0E0,7.0053394E2,0E0,0E0,2.4410516E2,0E0,0E0,4.3640015E2,2.2173745E3,0E0,8.7632574E2,0E0,0E0,0E0,0E0,0E0,0E0,0E0,0E0,0E0,0E0],"parents":[2147483647,0,0,1,1,2,2,3,3,4,4,6,6,7,7,8,8,9,9,10,10,11,11,12,12,13,13,15,15,16,16,17,17,18,18,20,20,21,21,22,22,24,24,25,25,26,26,27,27,28,28,30,30,31,31,32,32,33,33,34,34,35,35,36,36,37,37,39,39,40,40,41,41,44,44,47,47,52,52,54,54,58,58,60,60,61,61,63,63,64,64,81,81,84,84,87,87,88,88,90,90],"right_children":[2,4,6,8,10,-1,12,14,16,18,20,22,24,26,-1,28,30,32,34,-1,36,38,40,-1,42,44,46,48,50,-1,52,54,56,58,60,62,64,66,-1,68,70,72,-1,-1,74,-1,-1,76,-1,-1,-1,-1,78,-1,80,-1,-1,-1,82,-1,84,86,-1,88,90,-1,-1,-1,-1,-1,-1,-1,-1,-1,-1,-1,-1,-1,-1,-1,-1,92,-1,-1,94,-1,-1,96,98,-1,100,-1,-1,-1,-1,-1,-1,-1,-1,-1,-1],"split_conditions":[4.3335968E-1,-4.2975384E-1,-8.0057395E-1,8.7677693E-1,8.7677693E-1,4.1753647E-1,1.4600263E0,2.6242397E0,-3.7758926E-1,-2.1902607E-1,-9.503666E-1,2.5517094E-1,-2.8099027E-3,-2.4788935E-1,2.1148184E-2,-2.966795E-1,-8.6267596E-1,8.513838E-1,1.4417945E-1,3.4903347E-1,-6.278404E-1,5.888946E-1,5.2303433E-1,3.5213098E-2,-3.396441E-1,-7.5536E-1,-3.7759367E-1,-4.5748353E-1,-5.4358107E-1,4.576175E-2,-5.8257145E-1,-5.8021015E-1,-4.6574336E-1,-1.052895E0,-5.842593E-1,5.282829E-1,8.0009675E-1,-2.5098678E-1,1.3939263E-1,7.620684E-1,9.946898E-3,-1.3411172E-2,3.4856156E-1,-6.840774E-2,2.5903463E0,3.8900036E-2,-2.2761007E-1,-1.4935513E0,-9.056888E-3,4.500045E-2,-2.1439485E-1,-6.992932E-2,-1.1530741E0,-5.7013012E-2,-6.47383E-1,1.3951969E-1,-9.086587E-2,1.4333797E-1,1.1298563E0,3.1681046E-1,-4.1758272E-1,-3.4289367E-2,2.5592064E-2,-1.6837054E-1,-2.1021475E-1,-3.134627E-2,-1.8101877E-1,-1.4619891E-1,1.5527384E-2,8.5615784E-2,3.629718E-1,1.7584441E-2,1.773506E-1,-4.2547128E-1,-1.4324786E-1,3.5134457E-2,2.8024E-1,-7.985286E-2,-3.0895248E-1,-8.7826885E-2,-3.4418312E-1,-1.878944E-1,4.4498313E-2,1.6440359E-1,4.107374E-1,-6.3832335E-2,-2.3250043E-1,1.1995686E0,1.5299049E-1,-2.4728173E-1,-4.6200627E-1,-2.4108306E-1,4.6907034E-2,1.3648494E-2,-1.7558978E-1,2.3571138E-1,-7.846694E-3,-1.1956918E-1,2.6381585E-1,1.8140781E-1,-1.3977179E-1],"split_indices":[0,12,4,6,6,0,49,33,37,4,4,46,15,49,0,1,9,36,46,0,3,13,3,0,33,23,47,12,33,0,12,16,4,9,9,42,3,42,0,13,15,18,0,0,3,0,0,13,0,0,0,0,46,0,11,0,0,0,16,0,39,15,0,18,4,0,0,0,0,0,0,0,0,0,0,0,0,0,0,0,0,19,0,0,13,0,0,45,42,0,33,0,0,0,0,0,0,0,0,0,0],"split_type":[0,0,0,0,0,0,0,0,0,0,0,0,0,0,0,0,0,0,0,0,0,0,0,0,0,0,0,0,0,0,0,0,0,0,0,0,0,0,0,0,0,0,0,0,0,0,0,0,0,0,0,0,0,0,0,0,0,0,0,0,0,0,0,0,0,0,0,0,0,0,0,0,0,0,0,0,0,0,0,0,0,0,0,0,0,0,0,0,0,0,0,0,0,0,0,0,0,0,0,0,0],"sum_hessian":[5.7E2,4.35E2,1.35E2,1.59E2,2.76E2,3.3E1,1.02E2,9E1,6.9E1,1.41E2,1.35E2,6E1,4.2E1,8.4E1,6E0,3.3E1,3.6E1,5.4E1,8.7E1,1.1E1,1.24E2,3.1E1,2.9E1,7E0,3.5E1,6.3E1,2.1E1,2.2E1,1.1E1,5E0,3.1E1,4E1,1.4E1,4.7E1,4E1,1.9E1,1.05E2,2.2E1,9E0,1.1E1,1.8E1,1E1,2.5E1,6E0,5.7E1,8E0,1.3E1,1.6E1,6E0,5E0,6E0,7E0,2.4E1,7E0,3.3E1,7E0,7E0,8E0,3.9E1,1.6E1,2.4E1,1.3E1,6E0,8.3E1,2.2E1,9E0,1.3E1,6E0,5E0,5E0,1.3E1,5E0,5E0,5E1,7E0,5E0,1.1E1,5E0,1.9E1,7E0,2.6E1,3.2E1,7E0,6E0,1.8E1,6E0,7E0,4.7E1,3.6E1,9E0,1.3E1,2.7E1,5E0,5E0,1.3E1,4.2E1,5E0,2.6E1,1E1,7E0,6E0],"tree_param":{"num_deleted":"0","num_feature":"51","num_nodes":"101","size_leaf_vector":"1"}},{"base_weights":[-3.1844327E-1,-2.7738504E0,8.369728E0,-6.9048223E0,1.557817E0,2.246599E0,1.1030454E1,-1.0758846E1,-2.5273056E0,3.4597182E0,-5.276867E0,2.9407585E-1,-5.1809216E-1,1.0568867E-2,1.1895015E1,-5.144684E0,-1.3190423E1,-8.990087E-1,-2.925547E-1,1.2834811E0,1.1327452E1,2.3764617E0,-1.1312591E1,-4.8845267E0,3.0511286E0,4.4485917E0,1.2955633E1,1.1680416E-1,-7.471329E0,-1.4296622E1,-4.0001817E0,-2.1779177E0,7.481781E0,6.883402E0,-1.4623963E0,4.426932E-1,4.131066E0,-1.6559188E-1,7.7901783E0,-3.2221285E-1,-7.061074E-2,-1.8422575E-1,-9.81807E-3,-9.1596186E-2,8.677684E0,-2.0449959E-2,1.76336E-1,3.6336508E-1,4.82257E0,-2.4775569E-1,-1.024876E1,-1.5202441E1,-5.7906818E-2,2.187492E-2,-1.7195685E-1,-4.936694E0,2.7971509E0,2.499115E-1,3.9086793E-2,-5.4533437E-2,8.362755E0,-4.7348237E0,4.830289E0,8.307876E0,-1.5036851E-1,2.7063115E-2,2.5310126E-1,6.785804E-2,2.6759067E-1,-1.1295913E-2,1.9331065E-1,-1.2337156E-1,1.2390553E-1,-5.5392846E-2,-1.1526232E1,-1.6099018E1,-1.1263119E-1,-7.417194E0,-1.3620241E0,8.031799E0,-3.625018E0,3.3835676E-1,5.274806E0,-5.742403E0,1.09552346E-1,6.2083254E0,-5.3618688E-2,2.7535933E-1,2.1342775E-2,-3.5506475E-1,-9.696163E-2,-4.3754616E-1,-1.2100343E-1,-1.7358594E-2,-2.4617006E-1,-1.2670362E-1,9.490465E-2,2.57701E-1,1.7396979E-2,-1.3424638E-1,1.2228485E-2,2.9656269E-2,1.7258514E-1,-1.7827223E-1,2.4950413E-2,2.0227239E-1,-3.5190985E-2],"categories":[],"categories_nodes":[],"categories_segments":[],"categories_sizes":[],"default_left":[0,0,0,0,0,0,0,0,0,0,0,0,0,0,0,0,0,0,0,0,0,0,0,0,0,0,0,0,0,0,0,0,0,0,0,0,0,0,0,0,0,0,0,0,0,0,0,0,0,0,0,0,0,0,0,0,0,0,0,0,0,0,0,0,0,0,0,0,0,0,0,0,0,0,0,0,0,0,0,0,0,0,0,0,0,0,0,0,0,0,0,0,0,0,0,0,0,0,0,0,0,0,0,0,0,0,0],"id":12,"left_children":[1,3,5,7,9,11,13,15,17,19,21,-1,23,-1,25,27,29,31,-1,33,35,37,39,41,43,45,47,-1,49,51,53,55,57,59,61,-1,63,-1,65,-1,-1,-1,-1,-1,67,-1,-1,-1,69,71,73,75,-1,-1,-1,77,79,-1,-1,-1,81,83,85,87,-1,-1,-1,-1,-1,-1,-1,-1,-1,-1,89,91,-1,93,95,97,99,-1,101,103,-1,105,-1,-1,-1,-1,-1,-1,-1,-1,-1,-1,-1,-1,-1,-1,-1,-1,-1,-1,-1,-1,-1],"loss_changes":[1.2675342E4,8.340442E3,2.0026113E3,3.8717197E3,3.0782058E3,1.1957142E3,7.943213E2,1.3587422E3,1.6305256E3,3.0527207E3,2.538013E3,0E0,6.9737976E2,0E0,3.5931348E2,1.2018456E3,5.5928613E2,1.202149E3,0E0,2.3434197E3,1.2625015E3,1.528918E3,1.1860474E2,1.835083E2,1.0808995E3,2.5361743E2,2.8031836E2,0E0,7.6232983E2,6.17417E2,2.3642894E2,1.3727504E3,1.1591583E2,7.556052E2,2.253534E3,0E0,1.2355975E3,0E0,1.9837646E2,0E0,0E0,0E0,0E0,0E0,9.098145E0,0E0,0E0,0E0,2.432999E2,4.7694742E2,1.5876929E2,2.9135742E2,0E0,0E0,0E0,5.0275696E2,1.3887415E3,0E0,0E0,0E0,2.8876343E2,7.6274097E2,4.2729694E2,2.818994E2,0E0,0E0,0E0,0E0,0E0,0E0,0E0,0E0,0E0,0E0,1.2877246E2,1.6229883E2,0E0,4.7294812E2,6.590403E2,2.7328394E2,1.4330338E2,0E0,1.5955322E2,5.474048E2,0E0,4.600553E2,0E0,0E0,0E0,0E0,0E0,0E0,0E0,0E0,0E0,0E0,0E0,0E0,0E0,0E0,0E0,0E0,0E0,0E0,0E0,0E0,0E0],"parents":[2147483647,0,0,1,1,2,2,3,3,4,4,5,5,6,6,7,7,8,8,9,9,10,10,12,12,14,14,15,15,16,16,17,17,19,19,20,20,21,21,22,22,23,23,24,24,25,25,26,26,28,28,29,29,30,30,31,31,32,32,33,33,34,34,36,36,38,38,44,44,48,48,49,49,50,50,51,51,55,55,56,56,60,60,61,61,62,62,63,63,74,74,75,75,77,77,78,78,79,79,80,80,82,82,83,83,85,85],"right_children":[2,4,6,8,10,12,14,16,18,20,22,-1,24,-1,26,28,30,32,-1,34,36,38,40,42,44,46,48,-1,50,52,54,56,58,60,62,-1,64,-1,66,-1,-1,-1,-1,-1,68,-1,-1,-1,70,72,74,76,-1,-1,-1,78,80,-1,-1,-1,82,84,86,88,-1,-1,-1,-1,-1,-1,-1,-1,-1,-1,90,92,-1,94,96,98,100,-1,102,104,-1,106,-1,-1,-1,-1,-1,-1,-1,-1,-1,-1,-1,-1,-1,-1,-1,-1,-1,-1,-1,-1,-1],"split_conditions":[4.3335968E-1,8.7677693E-1,-2.4788935E-1,-3.1544095E-1,3.6076477E-1,-8.446306E-1,-5.618608E-1,-8.100404E-1,5.8147615E-1,7.4171174E-1,-4.1348755E-2,2.9407585E-1,4.268203E-1,1.0568867E-2,7.4282074E-1,-1.1411206E0,7.7686006E-1,3.982758E-1,-2.925547E-1,-2.4691385E-1,-3.4683317E-1,-7.916169E-2,1.1009319E0,1.3215367E0,2.077114E-1,-4.4841048E-1,1.7054776E0,1.1680416E-1,-5.089375E-1,2.2435575E0,1.4213671E-1,4.0657845E-1,-9.936954E-2,-1.0073856E0,1.2400734E-1,4.426932E-1,-1.9880608E-1,-1.6559188E-1,-1.029205E0,-3.2221285E-1,-7.061074E-2,-1.8422575E-1,-9.81807E-3,-9.1596186E-2,4.995495E-1,-2.0449959E-2,1.76336E-1,3.6336508E-1,-2.1066575E-1,-5.4358107E-1,-1.6569552E0,-1.8556245E-1,-5.7906818E-2,2.187492E-2,-1.7195685E-1,-4.9502352E-1,-3.3996606E-1,2.499115E-1,3.9086793E-2,-5.4533437E-2,-1.250572E-1,1.2801081E0,1.0643064E0,1.0643064E0,-1.5036851E-1,2.7063115E-2,2.5310126E-1,6.785804E-2,2.6759067E-1,-1.1295913E-2,1.9331065E-1,-1.2337156E-1,1.2390553E-1,-5.5392846E-2,-2.1066575E-1,2.5517738E0,-1.1263119E-1,-1.0455369E0,-3.3806875E-1,-3.4867758E-1,1.5312585E0,3.3835676E-1,-2.3861593E-1,9.454182E-3,1.09552346E-1,-2.1709508E-1,-5.3618688E-2,2.7535933E-1,2.1342775E-2,-3.5506475E-1,-9.696163E-2,-4.3754616E-1,-1.2100343E-1,-1.7358594E-2,-2.4617006E-1,-1.2670362E-1,9.490465E-2,2.57701E-1,1.7396979E-2,-1.3424638E-1,1.2228485E-2,2.9656269E-2,1.7258514E-1,-1.7827223E-1,2.4950413E-2,2.0227239E-1,-3.5190985E-2],"split_indices":[0,6,49,11,45,4,11,9,20,10,9,0,27,0,0,8,49,17,0,18,16,38,38,1,8,33,43,0,41,33,5,4,12,16,42,0,18,0,9,0,0,0,0,0,8,0,0,0,27,33,9,0,0,0,0,0,38,0,0,0,9,8,27,27,0,0,0,0,0,0,0,0,0,0,27,27,0,9,8,5,11,0,11,12,0,1,0,0,0,0,0,0,0,0,0,0,0,0,0,0,0,0,0,0,0,0,0],"split_type":[0,0,0,0,0,0,0,0,0,0,0,0,0,0,0,0,0,0,0,0,0,0,0,0,0,0,0,0,0,0,0,0,0,0,0,0,0,0,0,0,0,0,0,0,0,0,0,0,0,0,0,0,0,0,0,0,0,0,0,0,0,0,0,0,0,0,0,0,0,0,0,0,0,0,0,0,0,0,0,0,0,0,0,0,0,0,0,0,0,0,0,0,0,0,0,0,0,0,0,0,0,0,0,0,0,0,0],"sum_hessian":[5.84E2,4.58E2,1.26E2,2.33E2,2.25E2,4.1E1,8.5E1,1.2E2,1.13E2,1.78E2,4.7E1,6E0,3.5E1,7E0,7.8E1,4.1E1,7.9E1,1E2,1.3E1,1.44E2,3.4E1,2.2E1,2.5E1,1.5E1,2E1,1.3E1,6.5E1,7E0,3.4E1,6.8E1,1.1E1,9E1,1E1,4.5E1,9.9E1,1.5E1,1.9E1,8E0,1.4E1,2E1,5E0,8E0,7E0,1E1,1E1,5E0,8E0,5.4E1,1.1E1,1.1E1,2.3E1,6.2E1,6E0,5E0,6E0,5.8E1,3.2E1,5E0,5E0,6E0,3.9E1,6.6E1,3.3E1,1.4E1,5E0,5E0,9E0,5E0,5E0,5E0,6E0,6E0,5E0,5E0,1.8E1,5.5E1,7E0,3.1E1,2.7E1,1.7E1,1.5E1,9E0,3E1,6.1E1,5E0,2.8E1,5E0,9E0,5E0,1.1E1,7E0,4.9E1,6E0,9E0,2.2E1,1.6E1,1.1E1,1.2E1,5E0,1E1,5E0,1E1,2E1,5.2E1,9E0,2.3E1,5E0],"tree_param":{"num_deleted":"0","num_feature":"51","num_nodes":"107","size_leaf_vector":"1"}},{"base_weights":[-9.3032815E-2,-2.574991E0,9.689601E0,-5.8459687E0,1.1024595E0,2.8245335E0,1.2527538E1,-6.803894E0,7.425674E0,7.553537E0,-1.2815504E0,-3.357928E0,9.550208E0,1.3542651E1,-3.0959924E-3,-1.0388981E1,-3.815021E0,3.281824E-1,-2.2445273E-2,3.2930502E-1,3.8979285E0,-2.7688787E0,5.677546E0,4.9686503E-2,-1.546104E-1,-1.4786094E-2,3.3446956E-1,4.003025E-1,7.9769697E0,-1.1252767E1,4.9092107E-2,-7.1633763E0,1.0926417E0,-3.7291057E0,7.1208167E0,-4.526997E0,3.6553016E0,8.630984E0,-4.3387834E-2,2.6441494E-1,-4.0804114E-2,-6.6836386E0,-1.5789877E1,-4.762823E0,-3.3306196E-1,3.247912E0,-5.160733E0,-2.0635848E-1,7.0968956E-2,9.164846E0,-4.9005013E-2,-6.470436E0,-7.3334074E-1,-2.2238433E0,7.5780854E0,3.0428149E-2,2.8147885E-1,-8.188935E0,2.1133678E-2,-4.530712E-2,-4.5785445E-1,-6.288804E0,9.619226E-2,-1.2991136E-1,5.335573E0,-1.4711667E-2,-1.7563824E-1,6.17497E-2,2.8223786E-1,7.768457E-2,-7.53507E0,1.5977843E0,-1.9879338E-1,-1.16578154E-1,4.0481925E-2,-1.4735797E-2,1.0348609E1,-2.7292284E-1,-3.3142243E-2,-3.0639417E-2,-2.2942033E-1,2.0969321E-1,2.7598382E-3,-2.2946721E-1,1.986953E-2,-7.202179E-2,1.3571045E-1,3.186529E-1,7.655147E-2],"categories":[],"categories_nodes":[],"categories_segments":[],"categories_sizes":[],"default_left":[0,0,0,0,0,0,0,0,0,0,0,0,0,0,0,0,0,0,0,0,0,0,0,0,0,0,0,0,0,0,0,0,0,0,0,0,0,0,0,0,0,0,0,0,0,0,0,0,0,0,0,0,0,0,0,0,0,0,0,0,0,0,0,0,0,0,0,0,0,0,0,0,0,0,0,0,0,0,0,0,0,0,0,0,0,0,0,0,0],"id":13,"left_children":[1,3,5,7,9,11,13,15,17,19,21,23,25,27,-1,29,31,-1,-1,-1,33,35,37,-1,-1,-1,-1,-1,39,41,-1,43,45,47,49,51,53,55,-1,-1,-1,57,59,61,-1,63,65,-1,-1,67,-1,69,71,73,75,-1,-1,77,-1,-1,-1,79,-1,-1,81,-1,-1,-1,-1,-1,83,85,-1,-1,-1,-1,87,-1,-1,-1,-1,-1,-1,-1,-1,-1,-1,-1,-1],"loss_changes":[1.4151576E4,5.6275664E3,2.113419E3,3.388963E3,3.4805212E3,1.8649886E3,1.0683613E3,2.2913184E3,8.9015796E2,8.997527E2,1.8039159E3,4.0498004E2,7.630066E2,1.9653809E2,0E0,1.2041846E3,2.2599624E3,0E0,0E0,0E0,1.1890684E3,1.6742811E3,7.482682E2,0E0,0E0,0E0,0E0,0E0,7.299076E2,1.4739502E3,0E0,7.975464E2,8.761674E2,5.5092566E2,6.791963E2,8.0480615E2,8.464608E2,3.1553992E2,0E0,0E0,0E0,6.806726E2,1.0483477E3,9.5818713E2,0E0,9.4373145E2,1.0350665E2,0E0,0E0,1.8313916E2,0E0,8.6079443E2,7.7731116E2,1.8360025E2,5.0805444E2,0E0,0E0,7.1061743E2,0E0,0E0,0E0,6.9365625E2,0E0,0E0,5.7072595E2,0E0,0E0,0E0,0E0,0E0,7.963833E2,6.655409E2,0E0,0E0,0E0,0E0,4.3182983E1,0E0,0E0,0E0,0E0,0E0,0E0,0E0,0E0,0E0,0E0,0E0,0E0],"parents":[2147483647,0,0,1,1,2,2,3,3,4,4,5,5,6,6,7,7,8,8,9,9,10,10,11,11,12,12,13,13,15,15,16,16,20,20,21,21,22,22,28,28,29,29,31,31,32,32,33,33,34,34,35,35,36,36,37,37,41,41,42,42,43,43,45,45,46,46,49,49,51,51,52,52,53,53,54,54,57,57,61,61,64,64,70,70,71,71,76,76],"right_children":[2,4,6,8,10,12,14,16,18,20,22,24,26,28,-1,30,32,-1,-1,-1,34,36,38,-1,-1,-1,-1,-1,40,42,-1,44,46,48,50,52,54,56,-1,-1,-1,58,60,62,-1,64,66,-1,-1,68,-1,70,72,74,76,-1,-1,78,-1,-1,-1,80,-1,-1,82,-1,-1,-1,-1,-1,84,86,-1,-1,-1,-1,88,-1,-1,-1,-1,-1,-1,-1,-1,-1,-1,-1,-1],"split_conditions":[5.880902E-1,8.7677693E-1,-2.4788935E-1,1.8152487E0,-5.2440053E-1,2.4163103E-1,1.0296521E0,-3.92577E-1,-2.608522E-1,2.0943549E-2,8.125634E-1,-2.5460455E-1,1.2893904E0,1.543939E-1,-3.0959924E-3,2.4847758E0,3.3862755E-1,3.281824E-1,-2.2445273E-2,3.2930502E-1,3.8960645E-1,1.0955251E0,-3.1737942E-2,4.9686503E-2,-1.546104E-1,-1.4786094E-2,3.3446956E-1,4.003025E-1,-3.1083412E-2,8.8070214E-2,4.9092107E-2,6.5280485E-1,9.62028E-1,-5.733377E-1,1.2389862E-1,-3.5794652E-1,2.6178235E-1,-2.7096772E-1,-4.3387834E-2,2.6441494E-1,-4.0804114E-2,9.2599845E-1,-1.6392777E0,3.9647922E-1,-3.3306196E-1,-1.705583E0,-4.2437288E-1,-2.0635848E-1,7.0968956E-2,-3.8994065E-1,-4.9005013E-2,-1.029205E0,6.5062714E-1,1.607219E-1,-1.1361141E0,3.0428149E-2,2.8147885E-1,-2.568873E-1,2.1133678E-2,-4.530712E-2,-4.5785445E-1,-7.252506E-1,9.619226E-2,-1.2991136E-1,-4.652614E-1,-1.4711667E-2,-1.7563824E-1,6.17497E-2,2.8223786E-1,7.768457E-2,2.683934E-1,-4.7785565E-1,-1.9879338E-1,-1.16578154E-1,4.0481925E-2,-1.4735797E-2,-9.778057E-3,-2.7292284E-1,-3.3142243E-2,-3.0639417E-2,-2.2942033E-1,2.0969321E-1,2.7598382E-3,-2.2946721E-1,1.986953E-2,-7.202179E-2,1.3571045E-1,3.186529E-1,7.655147E-2],"split_indices":[22,6,49,46,37,8,25,12,16,9,8,18,2,9,0,49,25,0,0,0,9,38,18,0,0,0,0,0,18,17,0,42,13,37,22,8,42,18,0,0,0,25,16,42,0,39,41,0,0,47,0,9,38,3,8,0,0,1,0,0,0,5,0,0,9,0,0,0,0,0,2,42,0,0,0,0,3,0,0,0,0,0,0,0,0,0,0,0,0],"split_type":[0,0,0,0,0,0,0,0,0,0,0,0,0,0,0,0,0,0,0,0,0,0,0,0,0,0,0,0,0,0,0,0,0,0,0,0,0,0,0,0,0,0,0,0,0,0,0,0,0,0,0,0,0,0,0,0,0,0,0,0,0,0,0,0,0,0,0,0,0,0,0,0,0,0,0,0,0,0,0,0,0,0,0,0,0,0,0,0,0],"sum_hessian":[5.73E2,4.6E2,1.13E2,2.42E2,2.18E2,3.6E1,7.7E1,2.28E2,1.4E1,5.6E1,1.62E2,2E1,1.6E1,7.1E1,6E0,9.8E1,1.3E2,7E0,7E0,1.8E1,3.8E1,1.36E2,2.6E1,7E0,1.3E1,5E0,1.1E1,4.6E1,2.5E1,9.2E1,6E0,7.6E1,5.4E1,1.1E1,2.7E1,1.08E2,2.8E1,1.8E1,8E0,2E1,5E0,5.2E1,4E1,6E1,1.6E1,4.2E1,1.2E1,6E0,5E0,2.2E1,5E0,6.9E1,3.9E1,1.2E1,1.6E1,6E0,1.2E1,4.3E1,9E0,6E0,3.4E1,5.2E1,8E0,7E0,3.5E1,5E0,7E0,7E0,1.5E1,6E0,6.3E1,3.2E1,7E0,7E0,5E0,5E0,1.1E1,3E1,1.3E1,2E1,3.2E1,2.1E1,1.4E1,5.4E1,9E0,1.5E1,1.7E1,6E0,5E0],"tree_param":{"num_deleted":"0","num_feature":"51","num_nodes":"89","size_leaf_vector":"1"}},{"base_weights":[-1.0828302E-2,-2.2350647E0,9.04052E0,-5.725307E0,1.406158E0,1.4154142E0,1.1925194E1,-1.0397909E1,-3.1212726E0,6.3027945E0,-1.8792884E0,-1.2516244E-1,4.309834E0,1.2950368E1,-1.3434622E-2,-3.6329086E0,-1.2837041E1,1.9577976E0,-4.6264634E0,1.853034E0,9.283184E0,-1.044003E1,-1.3133429E-1,-2.4007032E0,2.838653E-1,4.17999E-2,1.3976062E1,6.2785074E-2,-7.001497E0,-1.4347721E1,-1.3950092E-1,-1.9503093E-1,5.9475346E0,-6.8091707E0,4.807003E-1,6.6799555E0,-2.745198E0,1.1588136E1,4.1890664E0,-3.1771988E-1,-4.2856585E-2,4.1389403E0,-4.142099E0,-1.414928E-1,7.060565E-2,3.8449183E-1,8.9772195E-2,7.4205743E-3,-2.4751553E-1,-1.2283226E-1,-3.9249218E-1,8.131987E0,-6.840725E-2,-8.732244E0,1.0841683E-1,2.440077E-1,-2.9880705E0,2.3236439E-1,7.5092015E-4,6.603272E-2,-1.3964863E-1,3.7244418E-1,5.6479514E-2,8.917272E0,-1.5072231E-1,5.4980893E0,-7.904805E-2,-8.391782E0,2.3321047E0,3.2625038E-3,9.983809E0,-2.6915166E-1,-1.0663979E1,-1.0627543E-1,4.051584E0,-7.1761117E0,1.2761958E0,2.6857737E-1,6.0857024E-2,9.2769396E-1,7.6419425E0,-1.4168668E0,-1.1363614E1,8.804921E0,-4.3883348E0,3.0246887E-1,7.9349525E-2,1.0270434E-1,-1.0589282E-1,-2.9973143E-1,-3.9669354E-2,1.2892956E-1,2.6835509E-2,-2.3688642E-2,-2.3768906E-1,1.2523262E-1,-7.0630364E-2,1.0681737E-1,-7.958744E-2,2.5162795E-1,4.03172E-3,-1.4440003E-1,1.2027382E-1,-7.370526E-2,-3.2507655E-1,2.8406847E-1,8.499547E-2,-1.6920199E-1,1.3974278E-2],"categories":[],"categories_nodes":[],"categories_segments":[],"categories_sizes":[],"default_left":[0,0,0,0,0,0,0,0,0,0,0,0,0,0,0,0,0,0,0,0,0,0,0,0,0,0,0,0,0,0,0,0,0,0,0,0,0,0,0,0,0,0,0,0,0,0,0,0,0,0,0,0,0,0,0,0,0,0,0,0,0,0,0,0,0,0,0,0,0,0,0,0,0,0,0,0,0,0,0,0,0,0,0,0,0,0,0,0,0,0,0,0,0,0,0,0,0,0,0,0,0,0,0,0,0,0,0,0,0],"id":14,"left_children":[1,3,5,7,9,11,13,15,17,19,21,-1,23,25,-1,27,29,31,33,35,37,39,41,43,-1,-1,45,-1,47,49,-1,-1,51,53,55,57,59,61,63,-1,-1,65,67,-1,-1,-1,-1,-1,-1,-1,-1,69,-1,71,73,-1,75,-1,-1,-1,-1,-1,-1,77,-1,79,-1,81,83,-1,85,87,89,-1,91,93,95,-1,-1,97,99,101,103,105,107,-1,-1,-1,-1,-1,-1,-1,-1,-1,-1,-1,-1,-1,-1,-1,-1,-1,-1,-1,-1,-1,-1,-1,-1],"loss_changes":[1.1630466E4,5.938649E3,2.4146318E3,2.7263818E3,3.7766777E3,7.720748E2,1.0864434E3,1.1278574E3,1.2692217E3,1.1539622E3,2.110739E3,0E0,1.3870142E3,7.61417E2,0E0,6.7801355E2,2.673496E2,1.7355356E3,1.4129167E3,1.0685051E3,3.9534277E2,2.8010547E2,2.1904858E3,3.587305E2,0E0,0E0,3.8457617E2,0E0,3.936211E2,1.3671875E-2,0E0,0E0,6.907826E2,1.1799456E3,1.44713E3,3.4567285E2,4.354806E2,7.611333E2,1.4409547E3,0E0,0E0,6.906239E2,1.9149087E3,0E0,0E0,0E0,0E0,0E0,0E0,0E0,0E0,3.721787E2,0E0,1.1062119E3,4.80821E2,0E0,6.551647E2,0E0,0E0,0E0,0E0,0E0,0E0,5.4377563E1,0E0,4.8822363E2,0E0,7.612175E2,1.4964559E3,0E0,6.206836E1,3.720222E2,3.800747E2,0E0,1.2848785E1,1.7897559E2,3.664572E2,0E0,0E0,3.582487E2,5.496731E2,5.8337616E2,1.017251E2,1.6748291E1,2.1208737E2,0E0,0E0,0E0,0E0,0E0,0E0,0E0,0E0,0E0,0E0,0E0,0E0,0E0,0E0,0E0,0E0,0E0,0E0,0E0,0E0,0E0,0E0,0E0,0E0],"parents":[2147483647,0,0,1,1,2,2,3,3,4,4,5,5,6,6,7,7,8,8,9,9,10,10,12,12,13,13,15,15,16,16,17,17,18,18,19,19,20,20,21,21,22,22,23,23,26,26,28,28,29,29,32,32,33,33,34,34,35,35,36,36,37,37,38,38,41,41,42,42,51,51,53,53,54,54,56,56,63,63,65,65,67,67,68,68,70,70,71,71,72,72,74,74,75,75,76,76,79,79,80,80,81,81,82,82,83,83,84,84],"right_children":[2,4,6,8,10,12,14,16,18,20,22,-1,24,26,-1,28,30,32,34,36,38,40,42,44,-1,-1,46,-1,48,50,-1,-1,52,54,56,58,60,62,64,-1,-1,66,68,-1,-1,-1,-1,-1,-1,-1,-1,70,-1,72,74,-1,76,-1,-1,-1,-1,-1,-1,78,-1,80,-1,82,84,-1,86,88,90,-1,92,94,96,-1,-1,98,100,102,104,106,108,-1,-1,-1,-1,-1,-1,-1,-1,-1,-1,-1,-1,-1,-1,-1,-1,-1,-1,-1,-1,-1,-1,-1,-1],"split_conditions":[7.4282074E-1,8.7677693E-1,-2.4788935E-1,-4.9915022E-1,-4.7080278E-1,-4.5826337E-3,1.2291375E0,-6.2459254E-1,-7.6655835E-1,-5.756199E-1,-4.0760034E-1,-1.2516244E-1,2.4163103E-1,-7.6655835E-1,-1.3434622E-2,-3.843877E-1,-2.4788935E-1,-3.7861592E-1,-5.155366E-1,-8.0278677E-1,5.5132794E-1,1.1203029E0,-1.9880608E-1,1.3348007E0,2.838653E-1,4.17999E-2,-6.845008E-2,6.2785074E-2,4.2621216E-1,-5.466338E-1,-1.3950092E-1,-1.9503093E-1,8.0047375E-1,1.1366802E0,-3.853827E-1,-6.679135E-1,-5.0496566E-1,5.5198723E-1,8.214093E-1,-3.1771988E-1,-4.2856585E-2,3.259172E0,1.2400734E-1,-1.414928E-1,7.060565E-2,3.8449183E-1,8.9772195E-2,7.4205743E-3,-2.4751553E-1,-1.2283226E-1,-3.9249218E-1,-9.3976796E-1,-6.840725E-2,-6.716503E-1,-1.1884009E0,2.440077E-1,-1.796409E-1,2.3236439E-1,7.5092015E-4,6.603272E-2,-1.3964863E-1,3.7244418E-1,5.6479514E-2,-4.2268813E-1,-1.5072231E-1,-7.363271E-1,-7.904805E-2,-2.9975474E-1,3.6076477E-1,3.2625038E-3,1.2574627E-1,-1.7280531E-1,2.649586E0,-1.0627543E-1,-4.2121887E-1,-1.963516E-1,2.097112E-3,2.6857737E-1,6.0857024E-2,3.109897E-1,-3.2983965E-1,-1.1634053E-1,-4.9250716E-1,-3.7192947E-1,-1.0135866E0,3.0246887E-1,7.9349525E-2,1.0270434E-1,-1.0589282E-1,-2.9973143E-1,-3.9669354E-2,1.2892956E-1,2.6835509E-2,-2.3688642E-2,-2.3768906E-1,1.2523262E-1,-7.0630364E-2,1.0681737E-1,-7.958744E-2,2.5162795E-1,4.03172E-3,-1.4440003E-1,1.2027382E-1,-7.370526E-2,-3.2507655E-1,2.8406847E-1,8.499547E-2,-1.6920199E-1,1.3974278E-2],"split_indices":[22,6,49,14,37,39,35,23,38,23,18,0,8,38,0,26,49,12,1,8,42,16,18,1,0,0,19,0,1,12,0,0,26,16,39,40,13,28,3,0,0,44,42,0,0,0,0,0,0,0,0,25,0,16,26,0,25,0,0,0,0,0,0,1,0,40,0,26,45,0,40,26,23,0,33,18,13,0,0,16,1,3,13,38,8,0,0,0,0,0,0,0,0,0,0,0,0,0,0,0,0,0,0,0,0,0,0,0,0],"split_type":[0,0,0,0,0,0,0,0,0,0,0,0,0,0,0,0,0,0,0,0,0,0,0,0,0,0,0,0,0,0,0,0,0,0,0,0,0,0,0,0,0,0,0,0,0,0,0,0,0,0,0,0,0,0,0,0,0,0,0,0,0,0,0,0,0,0,0,0,0,0,0,0,0,0,0,0,0,0,0,0,0,0,0,0,0,0,0,0,0,0,0,0,0,0,0,0,0,0,0,0,0,0,0,0,0,0,0,0,0],"sum_hessian":[5.68E2,4.59E2,1.09E2,2.33E2,2.26E2,3.2E1,7.7E1,7.8E1,1.55E2,8.9E1,1.37E2,9E0,2.3E1,7.1E1,6E0,2.4E1,5.4E1,3.5E1,1.2E2,3.9E1,5E1,1.9E1,1.18E2,1.3E1,1E1,7E0,6.4E1,9E0,1.5E1,4.1E1,1.3E1,9E0,2.6E1,8.3E1,3.7E1,1.8E1,2.1E1,3E1,2E1,1.4E1,5E0,5.7E1,6.1E1,8E0,5E0,5.7E1,7E0,5E0,1E1,6E0,3.5E1,2.1E1,5E0,6.4E1,1.9E1,8E0,2.9E1,1.2E1,6E0,7E0,1.4E1,2.1E1,9E0,1.4E1,6E0,4.9E1,8E0,3.6E1,2.5E1,5E0,1.6E1,1.3E1,5.1E1,9E0,1E1,1.3E1,1.6E1,9E0,5E0,1.8E1,3.1E1,1.3E1,2.3E1,1.2E1,1.3E1,1E1,6E0,6E0,7E0,4.5E1,6E0,5E0,5E0,5E0,8E0,8E0,8E0,1E1,8E0,2.3E1,8E0,8E0,5E0,5E0,1.8E1,5E0,7E0,8E0,5E0],"tree_param":{"num_deleted":"0","num_feature":"51","num_nodes":"109","size_leaf_vector":"1"}},{"base_weights":[-5.6513804E-1,-2.923406E0,8.74869E0,-5.9178977E0,2.631748E-1,-2.547951E-1,1.0298897E1,-1.1457486E1,-2.6939285E0,7.326428E0,-1.5237622E0,-5.358357E0,1.5984592E-1,1.1668095E1,7.925571E-1,-8.229877E0,-4.3917343E-1,-5.148458E0,1.366258E0,-4.9926963E-2,9.489306E0,-4.589883E0,1.1628088E0,-2.4213687E-2,-1.8230811E-1,1.2735978E1,2.2678933E0,1.2294332E-1,-1.2146132E-1,-1.4689077E0,-1.051028E1,-7.2675333E0,1.6891985E-1,-4.7502937E0,3.9644766E0,1.0572914E1,2.6107443E-2,2.9770527E0,-7.192683E0,3.4506776E0,-4.1975265E0,6.0522156E0,1.3737221E1,1.8460666E-1,-9.491513E-2,1.6706517E-1,-5.7323165E0,-1.180844E1,3.3359553E-3,-8.803546E0,1.3114102E-1,-3.9492352E0,3.1512077E0,-6.9409275E0,2.7450081E-2,-1.3245645E0,7.2064066E0,3.0793646E-1,3.4915306E-2,7.309221E0,-2.5888162E0,1.0011262E-1,-9.029976E0,6.3161006E0,-5.1006603E-1,-7.448015E0,1.1756877E-1,2.0210586E-1,1.2996756E-2,3.700918E-1,8.936069E-2,-1.9089296E-1,-3.7031572E-2,-3.3519894E-1,-1.08753584E-1,-8.0266523E-1,-1.1544742E1,-1.4629859E-2,-1.459523E-1,-4.768857E-2,5.200296E0,-4.6676967E-2,-2.3465908E-1,-4.0650697E0,1.01873696E-1,8.986679E0,-2.0169264E-2,2.5103442E-2,2.5095513E-1,4.513837E-2,-1.4729495E-1,-2.028821E0,-1.0973779E1,-2.1220725E-2,8.288065E0,-3.5379338E0,3.0978374E0,2.373834E-2,-2.5049695E-1,-1.3881724E-1,1.1313847E-1,-3.2799318E-1,-2.0615786E-2,1.6974445E-1,2.3532955E-2,-1.4457662E-1,-3.7677018E-3,2.7574393E-1,5.0637756E-2,-1.4120027E-1,7.477742E-2,-9.441435E-2,-3.239703E-1,2.7377716E-1,4.286438E-2,-1.4251079E-1,-2.6819433E-4,1.7366517E-1,-4.5339808E-2],"categories":[],"categories_nodes":[],"categories_segments":[],"categories_sizes":[],"default_left":[0,0,0,0,0,0,0,0,0,0,0,0,0,0,0,0,0,0,0,0,0,0,0,0,0,0,0,0,0,0,0,0,0,0,0,0,0,0,0,0,0,0,0,0,0,0,0,0,0,0,0,0,0,0,0,0,0,0,0,0,0,0,0,0,0,0,0,0,0,0,0,0,0,0,0,0,0,0,0,0,0,0,0,0,0,0,0,0,0,0,0,0,0,0,0,0,0,0,0,0,0,0,0,0,0,0,0,0,0,0,0,0,0,0,0,0,0,0,0],"id":15,"left_children":[1,3,5,7,9,11,13,15,17,19,21,23,-1,25,27,29,-1,31,33,-1,35,37,39,-1,-1,41,43,-1,-1,45,47,49,51,53,55,57,-1,59,61,63,65,67,69,-1,-1,-1,71,73,-1,75,-1,77,79,81,-1,83,85,-1,-1,87,89,-1,91,93,95,97,-1,-1,-1,-1,-1,-1,-1,-1,-1,99,101,-1,-1,-1,103,-1,-1,105,-1,107,-1,-1,-1,-1,-1,109,111,-1,113,115,117,-1,-1,-1,-1,-1,-1,-1,-1,-1,-1,-1,-1,-1,-1,-1,-1,-1,-1,-1,-1,-1,-1],"loss_changes":[1.2707356E4,4.409623E3,1.651417E3,4.0881992E3,2.9358274E3,8.8455865E2,1.2474736E3,8.279219E2,1.6012174E3,1.0353562E3,1.5602091E3,7.440015E1,0E0,7.2068066E2,5.0124738E2,9.021509E2,0E0,1.125363E3,1.0929927E3,0E0,2.97875E2,1.8406089E3,1.333671E3,0E0,0E0,9.153516E1,5.6459015E2,0E0,0E0,9.249799E2,6.631367E2,1.5680737E3,4.6567676E2,3.067764E2,8.557989E2,3.3198315E2,0E0,7.2210156E2,1.5372534E3,8.7008856E2,1.1059572E3,1.6120447E2,1.2036035E2,0E0,0E0,0E0,6.2676086E1,8.940967E1,0E0,1.370938E3,0E0,7.1936905E1,2.7419482E2,8.724725E1,0E0,3.9602084E2,4.655287E2,0E0,0E0,1.8932587E2,2.5315344E2,0E0,6.8405225E2,6.5675635E2,4.4715372E2,5.3643335E2,0E0,0E0,0E0,0E0,0E0,0E0,0E0,0E0,0E0,6.3615546E2,5.316294E2,0E0,0E0,0E0,6.51846E1,0E0,0E0,9.393942E1,0E0,1.8364014E2,0E0,0E0,0E0,0E0,0E0,3.9997195E2,2.7700488E2,0E0,4.3938428E2,1.492547E2,3.9422003E2,0E0,0E0,0E0,0E0,0E0,0E0,0E0,0E0,0E0,0E0,0E0,0E0,0E0,0E0,0E0,0E0,0E0,0E0,0E0,0E0,0E0,0E0],"parents":[2147483647,0,0,1,1,2,2,3,3,4,4,5,5,6,6,7,7,8,8,9,9,10,10,11,11,13,13,14,14,15,15,17,17,18,18,20,20,21,21,22,22,25,25,26,26,29,29,30,30,31,31,32,32,33,33,34,34,35,35,37,37,38,38,39,39,40,40,41,41,42,42,46,46,47,47,49,49,51,51,52,52,53,53,55,55,56,56,59,59,60,60,62,62,63,63,64,64,65,65,75,75,76,76,80,80,83,83,85,85,91,91,92,92,94,94,95,95,96,96],"right_children":[2,4,6,8,10,12,14,16,18,20,22,24,-1,26,28,30,-1,32,34,-1,36,38,40,-1,-1,42,44,-1,-1,46,48,50,52,54,56,58,-1,60,62,64,66,68,70,-1,-1,-1,72,74,-1,76,-1,78,80,82,-1,84,86,-1,-1,88,90,-1,92,94,96,98,-1,-1,-1,-1,-1,-1,-1,-1,-1,100,102,-1,-1,-1,104,-1,-1,106,-1,108,-1,-1,-1,-1,-1,110,112,-1,114,116,118,-1,-1,-1,-1,-1,-1,-1,-1,-1,-1,-1,-1,-1,-1,-1,-1,-1,-1,-1,-1,-1,-1],"split_conditions":[7.4282074E-1,8.7677693E-1,-6.8942595E-1,-4.9915022E-1,-6.832945E-1,1.671204E0,9.4928426E-1,4.4057655E-1,3.2727647E-1,-2.6308274E-1,-4.1841036E-1,2.6704335E-1,1.5984592E-1,6.9283116E-1,2.8547376E-1,-4.44565E-1,-4.3917343E-1,8.513838E-1,-2.574598E-1,-4.9926963E-2,6.356731E-1,-2.317115E-1,7.53999E-1,-2.4213687E-2,-1.8230811E-1,7.179369E-1,1.1225756E0,1.2294332E-1,-1.2146132E-1,-9.819308E-1,2.1261075E0,2.0351024E0,-6.4699316E-1,2.1994228E0,9.212498E-3,5.7167053E-1,2.6107443E-2,-1.3765302E-1,-8.8837624E-1,1.756895E-2,-1.8556245E-1,-2.2461392E-1,-6.845008E-2,1.8460666E-1,-9.491513E-2,1.6706517E-1,-4.3827328E-1,3.2192588E-2,3.3359553E-3,-7.6655835E-1,1.3114102E-1,7.73904E-1,-6.4884335E-1,-3.834147E-1,2.7450081E-2,1.0645102E0,2.0804302E-1,3.0793646E-1,3.4915306E-2,-5.8521545E-1,-1.1190219E-1,1.0011262E-1,-4.7080278E-1,-4.9037227E-1,-3.7131466E-2,-3.6313787E-1,1.1756877E-1,2.0210586E-1,1.2996756E-2,3.700918E-1,8.936069E-2,-1.9089296E-1,-3.7031572E-2,-3.3519894E-1,-1.08753584E-1,-5.640163E-1,1.7093779E0,-1.4629859E-2,-1.459523E-1,-4.768857E-2,1.0703083E0,-4.6676967E-2,-2.3465908E-1,8.109358E-2,1.01873696E-1,1.050015E0,-2.0169264E-2,2.5103442E-2,2.5095513E-1,4.513837E-2,-1.4729495E-1,-2.5582358E-1,-6.4915293E-1,-2.1220725E-2,-1.3751069E-1,-3.786866E-1,-3.1090552E-2,2.373834E-2,-2.5049695E-1,-1.3881724E-1,1.1313847E-1,-3.2799318E-1,-2.0615786E-2,1.6974445E-1,2.3532955E-2,-1.4457662E-1,-3.7677018E-3,2.7574393E-1,5.0637756E-2,-1.4120027E-1,7.477742E-2,-9.441435E-2,-3.239703E-1,2.7377716E-1,4.286438E-2,-1.4251079E-1,-2.6819433E-4,1.7366517E-1,-4.5339808E-2],"split_indices":[0,6,40,14,38,0,3,17,4,4,46,1,0,40,17,50,0,36,11,0,4,15,38,0,0,2,1,0,0,9,36,46,6,21,15,11,0,3,9,17,0,12,19,0,0,0,16,2,0,38,0,13,40,21,0,11,26,0,0,3,21,0,37,40,11,17,0,0,0,0,0,0,0,0,0,37,32,0,0,0,11,0,0,26,0,11,0,0,0,0,0,38,3,0,1,21,3,0,0,0,0,0,0,0,0,0,0,0,0,0,0,0,0,0,0,0,0,0,0],"split_type":[0,0,0,0,0,0,0,0,0,0,0,0,0,0,0,0,0,0,0,0,0,0,0,0,0,0,0,0,0,0,0,0,0,0,0,0,0,0,0,0,0,0,0,0,0,0,0,0,0,0,0,0,0,0,0,0,0,0,0,0,0,0,0,0,0,0,0,0,0,0,0,0,0,0,0,0,0,0,0,0,0,0,0,0,0,0,0,0,0,0,0,0,0,0,0,0,0,0,0,0,0,0,0,0,0,0,0,0,0,0,0,0,0,0,0,0,0,0,0],"sum_hessian":[5.68E2,4.56E2,1.12E2,2.33E2,2.23E2,1.7E1,9.5E1,8.1E1,1.52E2,4.2E1,1.81E2,1E1,7E0,8.2E1,1.3E1,5.9E1,2.2E1,9.4E1,5.8E1,8E0,3.4E1,8.3E1,9.8E1,5E0,5E0,7.2E1,1E1,8E0,5E0,1.7E1,4.2E1,6.6E1,2.8E1,1.6E1,4.2E1,2.9E1,5E0,2.1E1,6.2E1,7E1,2.8E1,1.4E1,5.8E1,5E0,5E0,5E0,1.2E1,3.7E1,5E0,6E1,6E0,1.1E1,1.7E1,1.1E1,5E0,1.7E1,2.5E1,2.4E1,5E0,1.1E1,1E1,8E0,5.4E1,3.9E1,3.1E1,2.1E1,7E0,9E0,5E0,5.3E1,5E0,6E0,6E0,2.9E1,8E0,1.7E1,4.3E1,6E0,5E0,5E0,1.2E1,6E0,5E0,1.2E1,5E0,2E1,5E0,5E0,6E0,5E0,5E0,1.4E1,4E1,9E0,3E1,1.7E1,1.4E1,5E0,1.6E1,9E0,8E0,3.8E1,5E0,7E0,5E0,7E0,5E0,1.4E1,6E0,8E0,6E0,1E1,3E1,2E1,1E1,9E0,8E0,7E0,7E0],"tree_param":{"num_deleted":"0","num_feature":"51","num_nodes":"119","size_leaf_vector":"1"}},{"base_weights":[-1.2885429E-1,-2.4195375E0,8.478703E0,-6.1975436E0,5.4348946E-1,9.410751E0,-9.600638E-2,-3.1600468E0,-1.0925364E1,1.8519927E0,-9.968091E0,1.1887358E1,2.2537472E0,3.1594768E0,-7.0784636E0,5.852008E-2,-1.2829001E1,1.0479107E1,7.8543955E-1,-1.164322E1,-2.3679283E-2,-4.597577E-2,1.2897743E1,4.9687996E0,-1.0883747E-1,-2.1588528E0,7.1335096E0,-2.7424889E0,-1.0483954E1,1.5974428E-1,-1.4148921E-1,-1.41972E1,-2.4391927E-2,1.3725273E-2,3.4786105E-1,1.8006018E0,-7.1160846E0,-3.4418628E-1,-6.731562E-2,1.3753696E1,6.447269E-2,-7.0374766E-3,7.706702E0,-5.150114E0,1.3317111E-1,9.033355E0,-3.3805765E-2,-6.5526175E0,3.0538967E0,-2.975301E-1,-3.3327453E-2,-3.937994E-1,-1.0146168E-1,2.4786353E0,-2.6915056E-1,-6.579131E-1,-3.309333E-1,1.3556501E-1,1.4574479E1,6.907327E-4,2.7436852E-1,-1.5582837E-1,-2.8902603E-2,4.7661614E-2,2.658292E-1,-2.2912826E-1,2.0064196E-2,1.8704775E-1,-9.301941E-2,-1.1994678E0,5.222471E0,-9.8275825E-2,7.049195E-2,1.5357265E1,7.396798E-2,1.0828075E-1,-1.0807964E-1,1.6708721E-1,-5.6898117E-2,1.898731E-1,4.4328472E-1],"categories":[],"categories_nodes":[],"categories_segments":[],"categories_sizes":[],"default_left":[0,0,0,0,0,0,0,0,0,0,0,0,0,0,0,0,0,0,0,0,0,0,0,0,0,0,0,0,0,0,0,0,0,0,0,0,0,0,0,0,0,0,0,0,0,0,0,0,0,0,0,0,0,0,0,0,0,0,0,0,0,0,0,0,0,0,0,0,0,0,0,0,0,0,0,0,0,0,0,0,0],"id":16,"left_children":[1,3,5,7,9,11,-1,13,15,17,19,21,23,25,27,29,31,33,35,37,-1,-1,39,41,-1,43,45,47,49,-1,-1,51,-1,-1,-1,53,55,-1,-1,57,-1,-1,59,61,-1,63,-1,65,67,-1,-1,-1,-1,69,-1,71,-1,-1,73,-1,-1,-1,-1,-1,-1,-1,-1,-1,-1,75,77,-1,-1,79,-1,-1,-1,-1,-1,-1,-1],"loss_changes":[1.1157985E4,5.023406E3,1.5281553E3,2.6488472E3,3.5929248E3,1.8430205E3,0E0,3.256516E3,1.5786562E3,2.0773376E3,3.7840454E2,1.251832E3,7.17296E2,1.177114E3,1.0301284E3,7.078288E2,9.6424414E2,6.953777E2,1.7521531E3,1.8077515E2,0E0,0E0,5.0548828E2,4.0162213E2,0E0,6.9864575E2,5.594855E2,1.0274924E3,3.24312E2,0E0,0E0,2.9987695E2,0E0,0E0,0E0,1.7040424E3,8.662964E2,0E0,0E0,9.821289E1,0E0,0E0,3.9286792E2,3.6459595E1,0E0,1.321399E2,0E0,4.9563098E2,6.8607635E2,0E0,0E0,0E0,0E0,1.8999541E3,0E0,2.3231644E2,0E0,0E0,3.3018945E2,0E0,0E0,0E0,0E0,0E0,0E0,0E0,0E0,0E0,0E0,1.4195227E3,1.0590774E3,0E0,0E0,1.6543457E2,0E0,0E0,0E0,0E0,0E0,0E0,0E0],"parents":[2147483647,0,0,1,1,2,2,3,3,4,4,5,5,7,7,8,8,9,9,10,10,11,11,12,12,13,13,14,14,15,15,16,16,17,17,18,18,19,19,22,22,23,23,25,25,26,26,27,27,28,28,31,31,35,35,36,36,39,39,42,42,43,43,45,45,47,47,48,48,53,53,55,55,58,58,69,69,70,70,73,73],"right_children":[2,4,6,8,10,12,-1,14,16,18,20,22,24,26,28,30,32,34,36,38,-1,-1,40,42,-1,44,46,48,50,-1,-1,52,-1,-1,-1,54,56,-1,-1,58,-1,-1,60,62,-1,64,-1,66,68,-1,-1,-1,-1,70,-1,72,-1,-1,74,-1,-1,-1,-1,-1,-1,-1,-1,-1,-1,76,78,-1,-1,80,-1,-1,-1,-1,-1,-1,-1],"split_conditions":[5.880902E-1,-3.342848E-1,1.1422979E0,8.8070214E-2,3.259172E0,5.426047E-1,-9.600638E-2,-4.4128582E-1,-1.238033E0,-6.357844E-1,1.1186583E-1,-2.8873244E-1,1.8677199E-1,8.7677693E-1,-3.9355347E-1,5.3874844E-1,8.718878E-1,-2.1021475E-1,8.141036E-2,7.024093E-1,-2.3679283E-2,-4.597577E-2,4.6771165E-2,1.8387964E-2,-1.0883747E-1,-1.9843782E-1,-4.5169663E-1,-7.252506E-1,-1.878944E-1,1.5974428E-1,-1.4148921E-1,-4.0821075E-1,-2.4391927E-2,1.3725273E-2,3.4786105E-1,2.8771765E0,-4.4176304E-1,-3.4418628E-1,-6.731562E-2,-5.529146E-1,6.447269E-2,-7.0374766E-3,7.34683E-1,-1.5922777E-1,1.3317111E-1,-5.2400038E-2,-3.3805765E-2,-4.404735E-1,-6.195249E-1,-2.975301E-1,-3.3327453E-2,-3.937994E-1,-1.0146168E-1,-3.6439818E-1,-2.6915056E-1,8.7677693E-1,-3.309333E-1,1.3556501E-1,-6.845008E-2,6.907327E-4,2.7436852E-1,-1.5582837E-1,-2.8902603E-2,4.7661614E-2,2.658292E-1,-2.2912826E-1,2.0064196E-2,1.8704775E-1,-9.301941E-2,-1.3753383E-1,2.405126E-1,-9.8275825E-2,7.049195E-2,6.637564E-3,7.396798E-2,1.0828075E-1,-1.0807964E-1,1.6708721E-1,-5.6898117E-2,1.898731E-1,4.4328472E-1],"split_indices":[0,11,33,17,44,9,0,41,16,41,9,10,17,7,9,4,9,4,15,